{
  "metadata": {
    "firmware_version": "1.0.0",
    "model_type": "TFLite",
    "input_shape": [
      5
    ],
    "output_shape": [
      4
    ],
    "compression_ratio": 1.0,
    "timestamp": "2025-09-26T14:21:33.191408",
    "quantization": false,
    "pruning": true
  },
  "model_data_b64": "HAAAAFRGTDMUACAAHAAYABQAEAAMAAAACAAEABQAAAAcAAAAjAAAAOQAAABQFgAAYBYAABwbAAADAAAAAQAAAAQAAABi6f//DAAAABwAAAA8AAAADwAAAHNlcnZpbmdfZGVmYXVsdAABAAAABAAAAJD///8HAAAABAAAAAgAAABkZW5zZV81MAAAAAABAAAABAAAALLs//8EAAAADgAAAGRlbnNlXzQ4X2lucHV0AAACAAAANAAAAAQAAADc////CgAAAAQAAAATAAAAQ09OVkVSU0lPTl9NRVRBREFUQQAIAAwACAAEAAgAAAAJAAAABAAAABMAAABtaW5fcnVudGltZV92ZXJzaW9uAAsAAABoFQAAYBUAANASAAC4AgAAqAAAAKAAAACYAAAAkAAAAIgAAABoAAAABAAAAFrt//8EAAAAVAAAAAwAAAAIAA4ACAAEAAgAAAAQAAAAJAAAAAAABgAIAAQABgAAAAQAAAAAAAAAAAAKABAADAAIAAQACgAAAAIAAAACAAAABAAAAAYAAAAyLjEzLjAAALrt//8EAAAAEAAAADEuMTQuMAAAAAAAAAAAAACk5v//qOb//6zm//+w5v//5u3//wQAAAAAAgAAXKCZvuAuiD5KnaU+DvOqPmCPHLyQIOK8DIBFPvQ4kT54oWK+wCdFPSBFhbzI+SG+0Ox+PhMXKr7yKIY+YL8iPfL70D4yfKC+YBcPPohY0D2Q188+8n7Lvjtkfr4OJYc+WgATvrg+uL3APiM9OKnEvkiWfr1Z56W+4BciPUDrlbyGuj6+LMlzvmIQu75gJj++Bnq9PjIGwD6ejim+690zvu++Lb55Fai+6CZaPgCZOL1ibJA+gDZ2OwWbhL5M+1U+kIuovaDCOT6Anbc9wi3CPnRqdr7TlUq+UsyWPiYgbr7Mh1A+JKMCvjOfhr7KZLW+yO9yPly0Ez6CBHC+mOd/vVx1KL4I0Sq+5B22PiDX9rwHnoG+tLalvh2Rxr6tAs++Lp7LPjiOuD04na8+MIfHPHD+QD6woz2+mXCOvig5n77Vrau+TFHGvfohHr7wIqc+VHnZvZR3Oj4grtQ9loSGPmBv6z1wDv+8vTNdvpROBL4U6ZM93zmjvlDbsz0KuKq+0MxnPsReCb6A7ty8kJ+wPM/emb4SiZw+DN25PjjWY73kgI0+ojqpvoxx7L1WVr0+kgm7vjRlBD5GobI+YC9xveA5yj3gUxc8bMdwPqCXBL6QRbA+l5exvkDOtz6EbIG+UNx2PThCnT5awaI+It6Tvsw8nb4mzn2+pHu5PtgWTj3y7///BAAAAAAQAAAE6aK9aLEFvfZbTz5aeks+jDtHvmJ8fz705hU+ZIC3PceZhj4LkZM+umSZvZpMTz4t0WK+CQeSPvgHnj0Ce7S94LODPNTi+D34QXS9cN0rPcDvZ771S5Y+nS6LPiifOD5gmXq8KLwxPtIJKz4NtJY+nu5yPsQ7Pj6a+Fm+NzWJvqjMEb7MVri9rK9EvohTlb7qCUq+sGYePZiuvD34JTi9KBWXvsDe07xGQmG+irNdvl5xY76xYk6+/IGQvg5Rmb5A0iU+TKk2PlARg74wVFM9gGhOu8DlJ7xdn4s+p/02vuAK3z23XiS+8IujPbjHoj3gKks8CCZxvaVBjz7Ozou+qvFtPp4qUz54DBI9g6UpviA5Tb0M+YK+QFsPPb7ta74tSYm+ngYhPuDKZb1zTBK+bOkEPtpsFr6A4fE9ADIsuzT2iT1ONmS+ruqPviDyDD3n6YK+dpxKPhDAibwwQzE+FY6WPjICLj70V6I97mwaPqukJb7FFgq+5jojPt4fTL4AZw49QktuPg73Jz5Q5FQ9CeOIPhDm9LzuXJq+/kdZvjZNIT5AGla9fm6IvrZ/fb5Ggvm9IAaLPaA5Nz5zsYo+OKfvPQyMYb6QRZa8cDNDPZgv1T3sOl2+0xCcPmAr17w0vy6+QNuvOwwK7D15G5W+ENE6vaKdyr1EIw4+XgvMvdJWJb5IF5c9ZOe3PZ4tPD4wVt0801drvq7m/r1ijA4+MB0EPWxi+L0o7Qe9r10svpAS6z149la+rGXwPWzu5D00vK69jlf4vUFsI77u8F0+1J7SPRTIHL4MWMY97n8+Pv3fjD6WDFG+CNuGvmDMnT0Auqg6km2FvlPPhz5A78u7M7qQPsvxmr7gXK68Pok2viLvGj7I0QY9CkFvPqh0pb2g9Q2+wL4kPElKiL4w+KA9fudqPs8nM75E9f49VABCPhB5LL2eC1s+1JObvTzcnj1UNwM+D6WPPjVwhz6iVWE+MolpPhynmz2K3uG92GeUvjl2jb68IQg+DkhQPtSUlD1zZ48+kG46PUyBk75uTjc+YDL0PEw7l72wvW++NlZyvn73RD5v/4y+AO7JOoNkiL7A30K94H8avNyUir4wb+i8ZsNvPoYnab6uohY+pCcPPsjGrz1yJF4+EO8ivsDli74NWBq+sFy4PU/dhb621wk+ic8+vvY+Jz4+sJG9tr8vPu6MeD5AaZ47uE5JvtpuKj4Ke2c+DKY8vvqJ172k5gu+ECmCPScujT4WsHG+WJ8rvbzQm75cX+k9pB/evTwhjD1YB3E9RNHePRAoKb3KKlU+pPjsPWSq3z0sSSw+GLFvPZTlrz3iWEc+7eCAPtSGbb2wx7Y8R32XPuhrLj4VqS6+AFz6vFZyIT5ygaa9pCRgvowYf71vw5K+IhCSvmOEQL4Y2MS98HWAPUV5FL4iPDk+bgF5PlD/LL2AEC0+JvgxvmCf+r04uco9wDGsPUAohjsErUK+owwmvrBfTT0MsYS+iq99PvASibwA+Li55es6vkmZEL7sJ2q9IiAxvohZLL7cqpG+SMQ9vZCVjbzwBBa+2utevnAqYr3A+aW8QOW7vA8Jib4KJDc+/AlAPh1Xer7eU1c+yLxIPewG172Igim+GjqZvto0I75Qz7e8xgZqPha/hb3GpDs+Jm50vpgqpb0YzEa+FudivoCfAz3YryG+JjuGvoaXZz6YIpE90xiIPkCqDTyAbKu7VuImvsDYLLyQF8o9BzGUvhQ9w70sAKc94EzDPbQsFL4cRas9huBivsTTjj1CTmM+pvqdvZZ7Ej7ttJY+XvQdPo59Lb6c/Bo+4DzdPQB3ULx7UHe+mXpYvvjAgj1s1aY9Gh0dvgAzsTyXLoA+X4GOPuCQwTyN/om+9hfMvTB61j3Qs0u96Gg6Prwcjb1HxJA+eCeMvgBXlbswt32+aqoePlwJ7D0QdU+9dYWMvtC8Gz4DLDy+DGmRvZarjb6uhk0+kNl+PaxYpD3MM6q9+gqCvu9DkT4smtQ9vM2vPfjGPb7c9o49VvyOvZICdz5CWEQ+2m16PoOBG74yFY29cmwvPqLBcT7jDS6+REcWPsFwLb5gPg++1LmnPY5wGb7WjhC+dJPtPSjr671sTUm+qt1SPgCprDskHZy+PiTTvbregb6s7Xm+AhZjvuSQHj51iY4+oM1PPbOpgj5n8Wa+JFQEPpHMm76JFHa+N2qHvj8phj6jc2a+6pt7PoRAmT0Mcxs+sW43vojrPD76rX4+aEeZPTRwBT4oZ5o9UvB/PsC9Ub3qX2c+dMrxPS+Aij4swv49Dp3dvZgPCD1AXck97i1wPvBQzzxulZ+9mBJDPs5DnL76NOe9Tc+WPh7Cpb2YKhY9+KG4vS0DiT7NWIo+/x6Hvquiiz6QOkq+ICEUvCD3ND3QNeY9oHyyPQuzl74ACuq7xN4hPswV1b2AfEM7ou0bvpj5Hr2+Lko+EoOFvoMjhL7ozdc9hATmPZhmt73w5dS8cImGvcbUNL5He5A+uIxzvuARjry1Qy2+nPqSPRWcZ74wFj0+6I+iPcjeg752GgS+y5wJvr9pij6A7za86iNhPlCIL754AOM9rKCTvhTtxb14lQ09Q4WVPiRK4D0w9NM8zIUbPnqodT6W9n0+Wo0ZPmMLKb7sKRm+eAaWvtgoJj2Ov8C93IyUPcq3L74gYc49bpNSPoXPk77AeFG+CMH7PegsjD0SBZi97TSBPj66gb5QnSy+ofURvszkDD6xWJw+YoeYvugdqj2g2B+8D3ldvrh+vD3A1xQ+5FdNvugKAL3Mavu9ACwwvVKWaj5TUZu+1NlTvoKTXD4syBa+xCv0vZFFZ77DFHC+AHxJvoC3ojvQczC9oGRRvEpgUD4qiQS+wBcmvP+oEL54JE+9D1lsvmCUHryYrnY9KFIJPkU0lT44t0w9MKbBPTyLjj2Dli2+9BS6vSb2Zr6KSdW9kB5rPQh7aj2jEZo+qiRTPoZ3Or7ybmS+QMqAvRyPO75gSY+9qD7MvYBaJbxQzwO+qLMtPqg8ZL5mIV4+AEgQPd/shD5K3d69sqTIvQBDcD3aDk8+95qRPqQrDz4m2lg+sLBZvjhFNL2yvzE+YCYsvQo8Lj5dlIi+6nFmPqOggT60Igs+4OA1PsbKLz4YF649zyOUPhGulL6bDiK+gAOcPeDSbzxGiMa9cC0zvcLGg71g6Ig8cHxJvlKUl73Ibog92KkoPT5Tfz4+3gk+htEGvlszhj66ElY+0CqvvPNQlL4IOTU+5C41PkgGmr6WsUY+Di0RPro2gr6Q+by80GPNvBDRh74IrnS+pzqAPlgSTj2mzWY+oDEgPqo9Uj5sJWa967WcvtpzVb5MDh4+iQh0vvU2jD4NbY8+AFUGveFtaL6e+t+9awgpvkg/Oj4QJsS8YItRPfAaXL5drkO+CshrvkB3B70igUY+gI+5u1ZRhL7+c6S9oD2lPETv5D1eYVY+ioJQPk+yML44hjy+ZzqDPjhLXz3UsY893bVxvjkyjD5dBkW+4EIbPvouaL7OWmE+zOemPZRL7b0gT1Q9pB0UPiB9A73yFhA+AnaavrMFJb7gwV88pG51vVjTIT7KxAu+5hx0PgIBRT7QXHa+wMZXPCPhlT62jBA+9Hhxvo1QNb4ycdm9YPN5PKKhi76LpiO+wEm9uw9FNr5OoWo++AbQvVo4T76c7jI+TODzPbQiOT4QXMu84/hRvrwV+b13joG+r6aYvkLUHz4z0JS+4FpFPKDcjDzIxd09JaqXvtmcmb4kE++97Z2DPksrN754jlI9ThtuPstSiz6AT1K+lB4jPiC4mry6PWC+n52cPji3ZD2A84o7UFqsPdZMIj5g2hU9ZLi8Pcb4ZT4BQJw+vI2Mvi0dmD4IPic9M/SSPuZ+Nb7RYoE+SB3fvYhTbr7sOpe+TBcTPjSmTL4uK0G+zRmFvpj0x71TB5w+yM5tPcD1uTuW7CU+gC7Iu3oYUj5g3A6+aqJOPsDQWjxvdpo+jseKvZqLAz7QHYg81v4bvurrFD6AFmA8uKwUPSaFUz7EkIe+5KGsPZZjPj4qDYq9qmIdPhA86D16Pmo+VvyVvkYpST7wW4e+qcSSPt7RVb5qTT0+ghozPgUShT4IgXO+wIuXPehvCj2AtB48ys9hvuJSAz5ijg2+elJEPg3wjT4AfV88unfQvTCx1j0C8nE+3Kk1vgiCp71E1H69FMT6PV484L0uek2+0LyePSwWqz34ixO9/F/5vSx9/z2Q2SU+/kgkPiMXgj7Lbnm+FrWIvohIQj5wk7M8YFDYvAhvuD1NXpY+6AVkvoCBZzuQkAc+oYqCvjOUUr5Is2i9sNETPsCwwD0VOpE+nGOWvlJZv72cTuo9RGapPVnmRL7oKmS9CFMFPUDgGj6trRW+PrdfPgE/ab7/lJG+U92VvgpVWT4oIW09MED8PBhOcD3AL2O+oNF6Par2ZD7jZzK+uP3IPaOHNr7gyAK8rL0sviFRiT5owaI9dwGQPvKcVj6Ayb286nVRPtoqVr6UhdC94Cu0PLt+Eb5LqJA+evcavn3lhz7gKUW9NvQ/PvL+kL4QQ7c88oYqPmComb4jBoE+4C4qvANOkr5V2ok+T1iBPmMHEL6xlia+zuxUvm1sCr5AJmw9RjeIvtBRwz2tJYc+9V0jvlS5WL7f14A+mDHqPXxW4b1w1Tc+IEpoPfhYxr0gfAa9Br1pPjftgj4tpVS+uX2XPtQK5r3g9MQ9sF+3vL/RlL6AMcM7XGNCvjTKxD2UzfQ9Hm7MvW4scD4AQsk9IFc9PFxCxD1EIJK9ZWRjviqrEz7wliA+lXOcPmBRcrxqCfa9aZtfvjYWCj50CxO+JPVbvij/IT2iVTy+/tR2PpwmlL4a4969FXoRvgcuTr7o3Vi9EYFYvuq1zL0EJBQ+bt5Qvsrwgb4IL6G9OPRyvd7/vb0oPhW9vm1DPkcsjD6EBX6+rgUMvnquQ74y8HI+2INHvgcNmT44T9I95rBnPoj+Dj67qZM+ZHXzPTqrFz77xZW+XAMbPhCbOr7gkyg+EvoZvpxEAb72J0c+ksMfvubWVD4ANl66aPhgvpi8BT0WoFQ+cHnyvWZNlL7g7py8VKPKPbgRLj103wS+qkZ1PjiIUT3wH9s8MGbjPThTWr0w72y+CgdIPglskL4AoOm4+XeLPll5eL73TpQ+ZA/jPZaJVD4UYJe9+C5cPYFmKL5Op1G+yBc5vTgur72gLSU9AEDyum/ckL5czx2+GRGPvmILSz7ogO89kEyMvWqLer4oBKg9kEyGPB5J4L0waS09Osh6Pvx0nL7iCC8+RMzyvRTFWL4AwIm96KtCvrp9Sj6Wkmc+AE2OPQCgbTgOezU+z8s3vpg3s739bjS+4OAdvVkXGL4WG2o+5LM9PtD8TD2ocSM9BPu+PS7RED4kg1e+iAlcvZ6NBT4I/EI+tt12PoBuIzvYOhI+jrNXvtQL/r34oLQ9AAAGAAgABAAGAAAABAAAAIACAABYTiu+fvuEvuSnQb4GLQm+QmGoPnLLij7wUHG9+1x/vujmN73keCw+wHxTvei+nz4QoLk9RtqCvlgc/j2YLBm+XFsHPlRtg76AaRG91qSsPiD1bz6sUq+9jyF1vtL+Ob5KiQ2+BAmwPrD4mbykiG4+jLxAPtcnZL5GUnS+Oh+kPkoMij4OMoI+JZCwvgzqDr6j9GK+Lj24PnC1izyoKV89EARAPgw/Lj6o7bo+zsiTPsbmtj6uFlC+lBC7PqDgaj6MoJS+Xl/LPmmUt77dVCG+avWavigJcj4k3ZE+yszHPiHRQr5S+2G+ycg9vr6oV76y3pM+7m+pvlzQu77YPSY+qGxDPSdCeb6wouM9AL9aPoS/TD4YV6A+slukPiy6VD61Eqa+mt2wPkzYsT0AFWs8eLCIvRh/Lb1SfZ2+DDiCvmdKvr5Aa48+KGz4PXl4sL4omju9gIxyPDjEcj10r7Y+u1GOvhFdPb4wu149FFWiPvdYpr7YKm+9wlS2vpsSpL6crMq+ZAwYvlbRd7604A0+IGcoPBUCJb5O5wy+sJHPvaxEBL6k9Ss+SEVsPRWJV75GRMM+nw+zvoQ3fD6Y+J++Foxwvoztlr0gzVW9WLVvPrNTZb4AmsK6VIqvPrIdsj4IyJU+WF7oPUjGpT4ALeM9KGwzvTQPwr1a24a+oTEdvoxhYD5vKau+MGi9PQQ1mD74LHI+CAkzPtBfdr5gNtY9wC7FvZxMZD6IO3w9gLISvQAuQbzcbQc+LDScvuicqL5cc/m9ZH2NPSqLpb6I9Ji+aPdtvTSBKD6QBsE+EgALvhADbj44BYk+hJXLPly9Jz7UesE+pikbvhy+Wz4sgsQ+YPv//2T7//8PAAAATUxJUiBDb252ZXJ0ZWQuAAEAAAAUAAAAAAAOABgAFAAQAAwACAAEAA4AAAAUAAAAHAAAAAgBAAAMAQAAEAEAAAQAAABtYWluAAAAAAQAAACwAAAAaAAAADQAAAAQAAAAAAAKABAADAAIAAQACgAAAAwAAAAQAAAAAQAAAAEAAAAHAAAAAQAAAAYAAACa////EAAAAAAAAAgMAAAAEAAAAAz8//8BAAAABgAAAAMAAAAFAAAAAwAAAP/////K////EAAAAAAAAAgQAAAAFAAAALr///8AAAABAQAAAAUAAAADAAAABAAAAAIAAAD/////AAAOABYAAAAQAAwACwAEAA4AAAAYAAAAAAAACBgAAAAcAAAAAAAGAAgABwAGAAAAAAAAAQEAAAAEAAAAAwAAAAAAAAABAAAA/////wEAAAAHAAAAAQAAAAAAAAAIAAAAHAMAALQCAABQAgAABAIAAHABAADcAAAAYAAAAAQAAAAa/f//AAAAARQAAAAcAAAAHAAAAAgAAAA0AAAAAgAAAP////8EAAAABP3//xkAAABTdGF0ZWZ1bFBhcnRpdGlvbmVkQ2FsbDowAAAAAgAAAAEAAAAEAAAAcv3//wAAAAEUAAAAHAAAABwAAAAHAAAAVAAAAAIAAAD/////BAAAAFz9//84AAAAZXNwMzJfYWN0b3IvZGVuc2VfNTAvTWF0TXVsO2VzcDMyX2FjdG9yL2RlbnNlXzUwL0JpYXNBZGQAAAAAAgAAAAEAAAAEAAAA6v3//wAAAAEUAAAAHAAAABwAAAAGAAAAbAAAAAIAAAD/////IAAAANT9//9SAAAAZXNwMzJfYWN0b3IvZGVuc2VfNDkvTWF0TXVsO2VzcDMyX2FjdG9yL2RlbnNlXzQ5L1JlbHU7ZXNwMzJfYWN0b3IvZGVuc2VfNDkvQmlhc0FkZAAAAgAAAAEAAAAgAAAAev7//wAAAAEUAAAAHAAAABwAAAAFAAAAbAAAAAIAAAD/////IAAAAGT+//9SAAAAZXNwMzJfYWN0b3IvZGVuc2VfNDgvTWF0TXVsO2VzcDMyX2FjdG9yL2RlbnNlXzQ4L1JlbHU7ZXNwMzJfYWN0b3IvZGVuc2VfNDgvQmlhc0FkZAAAAgAAAAEAAAAgAAAAbv///wAAAAEQAAAAEAAAAAQAAAAoAAAA5P7//xsAAABlc3AzMl9hY3Rvci9kZW5zZV81MC9NYXRNdWwAAgAAAAQAAAAgAAAAtv///wAAAAEQAAAAEAAAAAMAAAAoAAAALP///xsAAABlc3AzMl9hY3Rvci9kZW5zZV80OS9NYXRNdWwAAgAAACAAAAAgAAAAAAAWABgAFAAAABAADAAIAAAAAAAAAAcAFgAAAAAAAAEQAAAAEAAAAAIAAAAsAAAAjP///xwAAABlc3AzMl9hY3Rvci9kZW5zZV80OC9NYXRNdWwxAAAAAAIAAAAgAAAABQAAAAAAFgAcABgAAAAUABAADAAAAAAACAAHABYAAAAAAAABFAAAACAAAAAgAAAAAQAAAEAAAAACAAAA/////wUAAAAEAAQABAAAACAAAABzZXJ2aW5nX2RlZmF1bHRfZGVuc2VfNDhfaW5wdXQ6MAAAAAACAAAAAQAAAAUAAAACAAAAIAAAAAQAAAD0////HAAAAAAAABwMAAwACwAAAAAABAAMAAAACQAAAAAAAAk=",
  "fisher_matrix": {
    "dense_48/kernel:0": {
      "values": [],
      "indices": [
        [],
        []
      ],
      "shape": [
        5,
        32
      ],
      "threshold": 0.0
    },
    "dense_48/bias:0": {
      "values": [],
      "indices": [
        []
      ],
      "shape": [
        32
      ],
      "threshold": 0.0
    },
    "dense_49/kernel:0": {
      "values": [],
      "indices": [
        [],
        []
      ],
      "shape": [
        32,
        32
      ],
      "threshold": 0.0
    },
    "dense_49/bias:0": {
      "values": [],
      "indices": [
        []
      ],
      "shape": [
        32
      ],
      "threshold": 0.0
    },
    "dense_50/kernel:0": {
      "values": [],
      "indices": [
        [],
        []
      ],
      "shape": [
        32,
        4
      ],
      "threshold": 0.0
    },
    "dense_50/bias:0": {
      "values": [],
      "indices": [
        []
      ],
      "shape": [
        4
      ],
      "threshold": 0.0
    }
  },
  "optimal_params": {
    "dense_48/kernel:0": [
      [
        -0.1672910451889038,
        0.27108341455459595,
        -0.05163264274597168,
        -0.14958417415618896,
        0.23433351516723633,
        0.3438187837600708,
        -0.23859509825706482,
        -0.13956469297409058,
        0.1875154972076416,
        -0.20321151614189148,
        -0.3585541546344757,
        0.3902342915534973,
        0.2888084053993225,
        -0.2434164136648178,
        0.32101207971572876,
        0.014348268508911133,
        -0.37166139483451843,
        0.01480400562286377,
        0.054377734661102295,
        -0.3204544484615326,
        0.010278493165969849,
        0.16792923212051392,
        0.24630552530288696,
        0.23409020900726318,
        0.2925417423248291,
        -0.09475556015968323,
        0.09248387813568115,
        0.10459589958190918,
        -0.011790752410888672,
        0.06908681988716125,
        0.37700319290161133,
        0.16380828619003296
      ],
      [
        -0.2597312331199646,
        -0.05891507863998413,
        0.31200337409973145,
        0.1321844458580017,
        -0.0856069028377533,
        -0.01879534125328064,
        0.32055073976516724,
        -0.2216363400220871,
        0.1701623797416687,
        0.3653608560562134,
        -0.15755029022693634,
        -0.19025088846683502,
        -0.330932080745697,
        0.11115014553070068,
        0.20774143934249878,
        -0.06674283742904663,
        0.28011512756347656,
        0.05926916003227234,
        0.317055344581604,
        -0.3958481550216675,
        -0.16114075481891632,
        0.05768325924873352,
        -0.31244349479675293,
        -0.22395209968090057,
        0.1134611964225769,
        -0.26339226961135864,
        0.2972794771194458,
        -0.09628057479858398,
        0.13225501775741577,
        -0.32332736253738403,
        -0.1357424557209015,
        0.3778902292251587
      ],
      [
        -0.18911701440811157,
        -0.24937812983989716,
        0.09063732624053955,
        -0.2566934823989868,
        -0.23938582837581635,
        0.2329431176185608,
        0.2696250081062317,
        0.3598417639732361,
        0.3650944232940674,
        0.22937250137329102,
        -0.30265361070632935,
        -0.22068527340888977,
        -0.36682403087615967,
        0.21361923217773438,
        -0.3243614733219147,
        -0.04235753417015076,
        0.12130004167556763,
        0.3568073511123657,
        -0.32489749789237976,
        -0.14848476648330688,
        -0.1376011073589325,
        -0.2104838639497757,
        -0.23490938544273376,
        -0.001484692096710205,
        0.3237783908843994,
        -0.15350963175296783,
        0.23649966716766357,
        0.22294849157333374,
        -0.30508553981781006,
        -0.2987406253814697,
        0.23243355751037598,
        -0.1515260636806488
      ],
      [
        -0.1339608132839203,
        -0.04489794373512268,
        -0.25557154417037964,
        -0.03550100326538086,
        -0.18163612484931946,
        0.18821924924850464,
        0.2542881369590759,
        0.01705428957939148,
        0.28864139318466187,
        -0.2902873754501343,
        0.23636305332183838,
        -0.18533624708652496,
        0.162345290184021,
        0.19994932413101196,
        0.34544068574905396,
        -0.30759674310684204,
        -0.3446691334247589,
        -0.27796730399131775,
        -0.05839046835899353,
        -0.2420094907283783,
        -0.10135209560394287,
        0.38138025999069214,
        -0.07369527220726013,
        0.34285223484039307,
        0.11092567443847656,
        0.21912211179733276,
        0.17483913898468018,
        0.06158021092414856,
        -0.32932209968566895,
        -0.058097273111343384,
        0.26761794090270996,
        0.21459239721298218
      ],
      [
        0.32886701822280884,
        0.1684299111366272,
        0.12407749891281128,
        0.33719509840011597,
        -0.13821902871131897,
        -0.22280822694301605,
        -0.34484973549842834,
        0.0544830858707428,
        0.35722941160202026,
        0.3972119688987732,
        0.2848902940750122,
        -0.21060463786125183,
        0.04771104454994202,
        0.31316447257995605,
        0.08683833479881287,
        -0.25433385372161865,
        -0.0458013117313385,
        -0.18492533266544342,
        -0.3561154007911682,
        0.1385524868965149,
        -0.12916821241378784,
        -0.3497285544872284,
        -0.05219757556915283,
        0.34788280725479126,
        -0.043804317712783813,
        -0.3343004882335663,
        -0.2405998706817627,
        -0.035814762115478516,
        -0.12180206179618835,
        0.1645553708076477,
        0.3976250886917114,
        0.38380563259124756
      ]
    ],
    "dense_48/bias:0": [
      0.0,
      0.0,
      0.0,
      0.0,
      0.0,
      0.0,
      0.0,
      0.0,
      0.0,
      0.0,
      0.0,
      0.0,
      0.0,
      0.0,
      0.0,
      0.0,
      0.0,
      0.0,
      0.0,
      0.0,
      0.0,
      0.0,
      0.0,
      0.0,
      0.0,
      0.0,
      0.0,
      0.0,
      0.0,
      0.0,
      0.0,
      0.0
    ],
    "dense_49/kernel:0": [
      [
        -0.0795460045337677,
        -0.14238226413726807,
        0.23236718773841858,
        0.034766197204589844,
        -0.16146400570869446,
        0.2826705873012543,
        0.28008612990379333,
        0.24272510409355164,
        -0.030561447143554688,
        -0.2845066785812378,
        0.008646547794342041,
        -0.09965507686138153,
        -0.06888808310031891,
        0.0748300850391388,
        -0.00904110074043274,
        -0.011165499687194824,
        0.13759154081344604,
        0.134102463722229,
        0.21176967024803162,
        -0.2896800935268402,
        -0.23025527596473694,
        -0.13649287819862366,
        -0.30002477765083313,
        -0.2599624693393707,
        0.18486562371253967,
        0.18972980976104736,
        0.06123507022857666,
        -0.16268421709537506,
        0.09582969546318054,
        -0.13674041628837585,
        0.026748627424240112,
        -0.3055800199508667
      ],
      [
        -0.032639890909194946,
        -0.09000930190086365,
        0.20621725916862488,
        0.23270896077156067,
        0.07377487421035767,
        -0.30262598395347595,
        0.045515596866607666,
        0.00483432412147522,
        0.15766271948814392,
        -0.046329766511917114,
        -0.00523144006729126,
        0.10472524166107178,
        0.1713121235370636,
        0.1518060564994812,
        0.044180989265441895,
        0.21986356377601624,
        0.3053641617298126,
        0.29141440987586975,
        -0.21258807182312012,
        0.17697536945343018,
        -0.033072710037231445,
        0.23839148879051208,
        -0.11673572659492493,
        -0.09763449430465698,
        0.17490580677986145,
        0.021920889616012573,
        0.2235971987247467,
        -0.20793458819389343,
        -0.07135060429573059,
        -0.1910952627658844,
        0.11103475093841553,
        0.1709323227405548
      ],
      [
        0.20249924063682556,
        -0.19207638502120972,
        0.03565642237663269,
        0.1640283763408661,
        0.08979681134223938,
        -0.021284520626068115,
        -0.2880958318710327,
        -0.19658935070037842,
        -0.08130158483982086,
        -0.017283231019973755,
        -0.16297277808189392,
        -0.0497320294380188,
        0.23609021306037903,
        -0.17913319170475006,
        0.11240732669830322,
        -0.1714184284210205,
        -0.29790788888931274,
        0.04997941851615906,
        -0.044011324644088745,
        0.17693668603897095,
        0.19385197758674622,
        0.192386656999588,
        0.25706425309181213,
        0.30474337935447693,
        0.25990310311317444,
        -0.026405513286590576,
        -0.17422442138195038,
        -0.13517923653125763,
        -0.22206266224384308,
        0.2372443974018097,
        -0.05330201983451843,
        -0.11855366826057434
      ],
      [
        0.1987089216709137,
        -0.2916529178619385,
        -0.16567043960094452,
        0.0519755482673645,
        0.18376776576042175,
        -0.17825791239738464,
        0.17901012301445007,
        0.166438490152359,
        -0.2188897728919983,
        -0.14650321006774902,
        -0.010549724102020264,
        0.18204081058502197,
        -0.16997484862804413,
        0.18449223041534424,
        0.08715176582336426,
        0.11084073781967163,
        0.08306485414505005,
        0.09455525875091553,
        0.17358282208442688,
        -0.3008291721343994,
        -0.005662858486175537,
        -0.24058842658996582,
        -0.1788760870695114,
        0.05805853009223938,
        -0.23779690265655518,
        0.09005552530288696,
        0.0981401801109314,
        0.05765366554260254,
        0.14420762658119202,
        -0.19483888149261475,
        -0.23138117790222168,
        -0.211689293384552
      ],
      [
        -0.194563090801239,
        -0.19730344414710999,
        -0.05010330677032471,
        0.26735714077949524,
        0.027018636465072632,
        0.15130284428596497,
        0.029809176921844482,
        0.2260552942752838,
        -0.062279269099235535,
        -0.21769657731056213,
        0.09867775440216064,
        -0.06890246272087097,
        0.14675623178482056,
        0.2487105429172516,
        -0.29628786444664,
        -0.2883352041244507,
        -0.009756237268447876,
        0.06960150599479675,
        -0.04202878475189209,
        0.1940368115901947,
        -0.2584330439567566,
        0.013169944286346436,
        0.0514054000377655,
        0.0056750476360321045,
        0.07399702072143555,
        0.29368820786476135,
        -0.17825178802013397,
        -0.2660467028617859,
        0.15682578086853027,
        0.29892751574516296,
        0.1953393518924713,
        -0.0672607421875
      ],
      [
        0.2494979202747345,
        0.03867214918136597,
        -0.2558063268661499,
        -0.029894858598709106,
        -0.22982721030712128,
        0.0329149067401886,
        -0.0738435685634613,
        -0.18422716856002808,
        -0.2866472899913788,
        -0.05521625280380249,
        -0.28943654894828796,
        0.2827474772930145,
        -0.1693754345178604,
        0.07484322786331177,
        -0.007142305374145508,
        -0.0966435968875885,
        -0.21628211438655853,
        -0.16951946914196014,
        0.17015090584754944,
        0.14177343249320984,
        -0.08029936254024506,
        0.2927332818508148,
        0.232526034116745,
        0.16203531622886658,
        0.03379812836647034,
        -0.2226787805557251,
        -0.007982462644577026,
        0.09537088871002197,
        0.3055693209171295,
        0.10269016027450562,
        -0.2820742428302765,
        -0.19010889530181885
      ],
      [
        0.14638882875442505,
        0.09212988615036011,
        0.03499913215637207,
        -0.30149024724960327,
        -0.12446342408657074,
        0.23364654183387756,
        -0.23412203788757324,
        -0.10524363815784454,
        -0.2852793335914612,
        -0.02026069164276123,
        -0.0953313410282135,
        -0.2737386226654053,
        -0.13988637924194336,
        0.13031083345413208,
        0.15807634592056274,
        0.03456637263298035,
        0.09203857183456421,
        -0.0908602774143219,
        -0.26675692200660706,
        -0.2543237805366516,
        0.020170986652374268,
        0.14116176962852478,
        0.2721160352230072,
        -0.006109058856964111,
        0.009686589241027832,
        0.003532499074935913,
        -0.16869229078292847,
        0.2639593183994293,
        -0.01478990912437439,
        0.22626075148582458,
        -0.00011140108108520508,
        0.19774523377418518
      ],
      [
        0.08960035443305969,
        -0.04495808482170105,
        -0.23039910197257996,
        -0.2121886909008026,
        0.1392073929309845,
        -0.08078891038894653,
        -0.23665699362754822,
        -0.13662201166152954,
        -0.1880050152540207,
        -0.022936463356018066,
        0.08154329657554626,
        -0.004557490348815918,
        0.08189740777015686,
        0.07539206743240356,
        -0.10404548048973083,
        0.2920323312282562,
        0.1453542709350586,
        -0.22554835677146912,
        0.22504392266273499,
        -0.023068219423294067,
        0.11178448796272278,
        -0.2358129620552063,
        -0.2053813934326172,
        0.20517149567604065,
        -0.22051921486854553,
        0.13238739967346191,
        0.26819708943367004,
        -0.15953810513019562,
        -0.12013514339923859,
        0.1396428346633911,
        0.2723996937274933,
        0.22614511847496033
      ],
      [
        0.2628919780254364,
        -0.29508328437805176,
        -0.2681364119052887,
        0.1575210988521576,
        0.03225439786911011,
        -0.13863229751586914,
        0.1923503577709198,
        0.06355488300323486,
        -0.09611529111862183,
        -0.26764723658561707,
        0.09536147117614746,
        -0.24776911735534668,
        -0.14984342455863953,
        0.2499401867389679,
        0.002982884645462036,
        0.10951641201972961,
        -0.20053058862686157,
        -0.10414417088031769,
        0.2531786859035492,
        -0.02507200837135315,
        0.20935580134391785,
        -0.17706508934497833,
        0.15929633378982544,
        -0.1395125389099121,
        0.12824586033821106,
        -0.2549639046192169,
        0.07947045564651489,
        -0.2116444706916809,
        -0.21836628019809723,
        0.28840431571006775,
        -0.24265040457248688,
        0.06948280334472656
      ],
      [
        0.2882159650325775,
        -0.025863051414489746,
        0.15725180506706238,
        -0.052271127700805664,
        -0.12128147482872009,
        0.010055243968963623,
        -0.2753863036632538,
        0.2757427394390106,
        0.06272494792938232,
        0.17884841561317444,
        -0.1447017788887024,
        0.1549469530582428,
        -0.14116987586021423,
        -0.051206350326538086,
        -0.15227368474006653,
        0.025873273611068726,
        -0.031260401010513306,
        0.057402193546295166,
        0.13587456941604614,
        -0.26526689529418945,
        0.203622967004776,
        -0.10617293417453766,
        -0.01888662576675415,
        0.2017914354801178,
        -0.13823845982551575,
        -0.2056434601545334,
        0.2812611758708954,
        0.2516469657421112,
        0.13485035300254822,
        0.11887624859809875,
        0.28966495394706726,
        5.665421485900879e-05
      ],
      [
        -0.07489915192127228,
        -0.21997937560081482,
        -0.05610167980194092,
        -0.26646798849105835,
        -0.03318515419960022,
        -0.2661917507648468,
        0.0015406012535095215,
        -0.23602327704429626,
        -0.144993856549263,
        0.18753808736801147,
        0.08362790942192078,
        0.11525222659111023,
        0.11600390076637268,
        0.22595182061195374,
        -0.03881224989891052,
        0.15187758207321167,
        -0.1227622926235199,
        0.057246237993240356,
        0.17761564254760742,
        -0.2389451265335083,
        -0.17255519330501556,
        0.015255779027938843,
        -0.21898546814918518,
        0.013355433940887451,
        0.1917208731174469,
        -0.05681160092353821,
        0.2095830738544464,
        0.11435240507125854,
        -0.14359837770462036,
        0.14811411499977112,
        0.11086919903755188,
        0.1772272288799286
      ],
      [
        0.20244064927101135,
        -0.21650519967079163,
        -0.1428697556257248,
        -0.24755749106407166,
        -0.16832612454891205,
        0.07859838008880615,
        -0.2663918435573578,
        -0.04190000891685486,
        0.1808934509754181,
        -0.244472935795784,
        -0.22155961394309998,
        -0.05064874887466431,
        -0.11519461870193481,
        0.11806192994117737,
        0.19744393229484558,
        0.23990049958229065,
        -0.043010711669921875,
        0.30091580748558044,
        0.17167195677757263,
        0.25044748187065125,
        -0.1841057538986206,
        -0.27271753549575806,
        0.3058900535106659,
        0.30168482661247253,
        0.27722206711769104,
        0.14435458183288574,
        -0.02316737174987793,
        -0.1100282371044159,
        -0.2148023247718811,
        -0.29252609610557556,
        0.2075560986995697,
        -0.179488405585289
      ],
      [
        -0.22150106728076935,
        -0.22211214900016785,
        0.12979668378829956,
        -0.12183050811290741,
        0.11478149890899658,
        0.2293986976146698,
        -0.0475766658782959,
        -0.3043268918991089,
        0.24316951632499695,
        0.2102808654308319,
        0.06973984837532043,
        -0.2744556963443756,
        -0.19658440351486206,
        0.2705092132091522,
        -0.26076561212539673,
        0.24801096320152283,
        0.22908905148506165,
        0.20619454979896545,
        0.08500498533248901,
        0.05031046271324158,
        0.25630494952201843,
        -0.1598149985074997,
        0.05583879351615906,
        -0.06776343286037445,
        0.013640642166137695,
        0.09408712387084961,
        0.20455136895179749,
        0.17952513694763184,
        0.03954997658729553,
        0.1513800024986267,
        -0.07391372323036194,
        -0.08750838041305542
      ],
      [
        0.28520992398262024,
        -0.20154835283756256,
        -0.14689961075782776,
        0.06788277626037598,
        -0.209924578666687,
        -0.1749565452337265,
        -0.009429901838302612,
        0.1139514148235321,
        -0.04223567247390747,
        0.04900816082954407,
        0.22197821736335754,
        0.15208745002746582,
        0.20592370629310608,
        0.12439379096031189,
        -0.25808343291282654,
        0.14995327591896057,
        -0.30335482954978943,
        -0.18209657073020935,
        0.289335697889328,
        0.2253938615322113,
        0.05451509356498718,
        -0.00577661395072937,
        0.004240453243255615,
        0.12846222519874573,
        -0.10179086029529572,
        0.28364625573158264,
        -0.2091478407382965,
        0.05671131610870361,
        -0.18392041325569153,
        -0.18223214149475098,
        0.053755730390548706,
        -0.1762046366930008
      ],
      [
        0.07716363668441772,
        -0.28224170207977295,
        0.11810588836669922,
        0.17893075942993164,
        0.11738142371177673,
        0.12449124455451965,
        -0.2706669569015503,
        -0.10845878720283508,
        0.1690082550048828,
        -0.10499367117881775,
        -0.07713823020458221,
        -0.18376164138317108,
        0.005269169807434082,
        -0.10820971429347992,
        0.10537320375442505,
        -0.16508249938488007,
        -0.20688563585281372,
        -0.22307947278022766,
        -0.2903905212879181,
        0.15643930435180664,
        0.07016339898109436,
        -0.17799781262874603,
        0.08415663242340088,
        0.01661577820777893,
        0.10483014583587646,
        -0.29372870922088623,
        -0.10181728005409241,
        -0.09684938192367554,
        0.24104687571525574,
        0.1646265983581543,
        -0.16445352137088776,
        -0.038544535636901855
      ],
      [
        -0.08812524378299713,
        -0.2994465231895447,
        -0.0026274919509887695,
        0.27088508009910583,
        0.11178287863731384,
        0.18945437669754028,
        -0.02837333083152771,
        0.06842276453971863,
        -0.17379817366600037,
        -0.1655369997024536,
        0.14304956793785095,
        -0.07100114226341248,
        -0.3049098253250122,
        0.03321799635887146,
        0.11231330037117004,
        -0.14957398176193237,
        0.21540644764900208,
        -0.06288576126098633,
        -0.1582588404417038,
        0.20531335473060608,
        -0.23604531586170197,
        0.22913095355033875,
        0.15849623084068298,
        -0.15233930945396423,
        0.23627474904060364,
        -0.09343208372592926,
        0.021993577480316162,
        -0.032833218574523926,
        -0.28935706615448,
        -0.15036800503730774,
        -0.2047397792339325,
        -0.14852656424045563
      ],
      [
        0.016076982021331787,
        0.16193485260009766,
        0.06736412644386292,
        0.11701816320419312,
        -0.08531990647315979,
        -0.04210764169692993,
        0.23414382338523865,
        0.05884489417076111,
        -0.12237429618835449,
        -0.2992714047431946,
        0.2943491041660309,
        -0.2766997218132019,
        -0.10309647023677826,
        0.09832239151000977,
        -0.08955115079879761,
        -0.293018102645874,
        -0.14724797010421753,
        -0.1831631064414978,
        0.07617855072021484,
        -0.056188032031059265,
        0.2738206684589386,
        -0.10157579183578491,
        0.036585211753845215,
        0.14543119072914124,
        -0.17740577459335327,
        0.1144077479839325,
        -0.142085000872612,
        0.2282601296901703,
        -0.10883159935474396,
        -0.12623828649520874,
        -0.045188695192337036,
        0.22861894965171814
      ],
      [
        0.12152639031410217,
        0.17838019132614136,
        -0.22286340594291687,
        -0.22026079893112183,
        -0.12126074731349945,
        0.2139115035533905,
        -0.22768983244895935,
        0.1087975800037384,
        0.09898608922958374,
        -0.15938130021095276,
        0.15425249934196472,
        0.20070907473564148,
        -0.2536523938179016,
        0.23455020785331726,
        -0.02598854899406433,
        0.04056629538536072,
        -0.11922410130500793,
        -0.06996417045593262,
        0.014637678861618042,
        -0.30607542395591736,
        -0.19240708649158478,
        -0.20236340165138245,
        0.09214857220649719,
        0.013677239418029785,
        -0.0817909836769104,
        0.08271458745002747,
        0.2825339734554291,
        0.2557160556316376,
        -0.14206726849079132,
        0.19448837637901306,
        -0.0855373740196228,
        0.18525654077529907
      ],
      [
        -0.059633225202560425,
        -0.25599145889282227,
        -0.28108733892440796,
        -0.018343716859817505,
        -0.1595926433801651,
        -0.07596555352210999,
        0.14710494875907898,
        -0.041297972202301025,
        0.08407926559448242,
        -0.022437721490859985,
        -0.16942426562309265,
        0.062219202518463135,
        -0.24407070875167847,
        0.025307148694992065,
        -0.06569182872772217,
        -0.09411536157131195,
        -0.22585131227970123,
        -0.09972888231277466,
        -0.09693960845470428,
        -0.20844975113868713,
        0.15162229537963867,
        0.174738347530365,
        0.22458180785179138,
        0.03629752993583679,
        -0.06221415102481842,
        -0.19228495657444,
        -0.15133467316627502,
        -0.20766134560108185,
        -0.2013474553823471,
        -0.15601947903633118,
        0.040326714515686035,
        0.050045788288116455
      ],
      [
        0.04195922613143921,
        0.05159395933151245,
        0.03441059589385986,
        0.047656476497650146,
        0.21673938632011414,
        0.07756850123405457,
        0.13979965448379517,
        0.2081710398197174,
        0.004094153642654419,
        0.22854146361351013,
        0.15135425329208374,
        0.08024725317955017,
        -0.22176364064216614,
        -0.07792173326015472,
        -0.17659291625022888,
        0.07253429293632507,
        -0.2344541996717453,
        -0.010092377662658691,
        -0.04374450445175171,
        0.15435141324996948,
        -0.2267417013645172,
        0.11908015608787537,
        0.3051758110523224,
        0.2065626084804535,
        0.12244430184364319,
        -0.055704981088638306,
        0.2654227316379547,
        0.295881062746048,
        -0.052946001291275024,
        0.20785102248191833,
        -0.0018482208251953125,
        0.03990331292152405
      ],
      [
        -0.2265005111694336,
        -0.0031495392322540283,
        -0.2556907832622528,
        0.10409468412399292,
        0.10284200310707092,
        0.12814074754714966,
        0.08582836389541626,
        0.1157086193561554,
        -0.1901131272315979,
        -0.06530587375164032,
        0.10802626609802246,
        -0.08310660719871521,
        0.1548495888710022,
        0.19050061702728271,
        0.2821905314922333,
        -0.17159953713417053,
        -0.1967620849609375,
        -0.12872052192687988,
        -0.06434394419193268,
        -0.23831380903720856,
        0.22007295489311218,
        0.18079644441604614,
        -0.27451884746551514,
        -0.264776349067688,
        -0.10949014127254486,
        0.032549887895584106,
        -0.04813563823699951,
        -0.11232534050941467,
        -0.21142984926700592,
        -0.0008476674556732178,
        -0.28293177485466003,
        0.09325221180915833
      ],
      [
        0.29354825615882874,
        -0.010247647762298584,
        0.19786247611045837,
        -0.216045081615448,
        -0.15310698747634888,
        0.28055617213249207,
        0.2169359028339386,
        0.10921171307563782,
        -0.1621575802564621,
        0.18324574828147888,
        -0.012723684310913086,
        -0.2539899945259094,
        0.2783924639225006,
        -0.3052048087120056,
        -0.23784148693084717,
        0.10077118873596191,
        0.004965722560882568,
        0.16963064670562744,
        0.01671236753463745,
        0.2738567888736725,
        0.08149680495262146,
        -0.024824172258377075,
        0.2970975935459137,
        0.08429315686225891,
        -0.20066139101982117,
        0.1512460708618164,
        0.18745502829551697,
        0.09617018699645996,
        -0.09995634853839874,
        -0.21969759464263916,
        -0.1541113257408142,
        0.14142295718193054
      ],
      [
        0.27184000611305237,
        0.2727002203464508,
        -0.016815215349197388,
        0.3048158586025238,
        0.09684762358665466,
        0.26452794671058655,
        -0.15911507606506348,
        0.16824787855148315,
        0.05014008283615112,
        -0.23870143294334412,
        -0.24151794612407684,
        0.2837214171886444,
        0.050733208656311035,
        -0.11289401352405548,
        -0.01734250783920288,
        0.2056405246257782,
        -0.0430791974067688,
        -0.22288763523101807,
        -0.1967637538909912,
        0.2801288664340973,
        -0.11586681008338928,
        -0.205050989985466,
        0.040830641984939575,
        0.18592676520347595,
        0.07750856876373291,
        -0.14617033302783966,
        -0.2831950783729553,
        -0.02238449454307556,
        0.14466863870620728,
        0.03265056014060974,
        -0.27942731976509094,
        -0.21046119928359985
      ],
      [
        0.18029463291168213,
        -0.1787019819021225,
        0.17310786247253418,
        -0.02626579999923706,
        0.1860348880290985,
        0.22005322575569153,
        -0.2732372283935547,
        0.05851849913597107,
        -0.2591632604598999,
        -0.08064764738082886,
        -0.2114051729440689,
        0.10380968451499939,
        0.25520095229148865,
        0.2945503294467926,
        -0.16920359432697296,
        -0.2886926233768463,
        -0.012780338525772095,
        0.2169242799282074,
        -0.0740133672952652,
        -0.03279590606689453,
        0.051833271980285645,
        -0.12162348628044128,
        0.2870193421840668,
        -0.06740792095661163,
        0.08353838324546814,
        0.2184724509716034,
        0.022370845079421997,
        -0.2906627357006073,
        -0.20397350192070007,
        0.20764192938804626,
        0.19828560948371887,
        -0.05372002720832825
      ],
      [
        -0.015295356512069702,
        0.10890746116638184,
        0.29405274987220764,
        -0.17065125703811646,
        0.27514639496803284,
        0.22806242108345032,
        -0.15072651207447052,
        0.08588710427284241,
        0.24773994088172913,
        -0.19413793087005615,
        0.06384462118148804,
        0.08584162592887878,
        -0.2255302518606186,
        -0.08093665540218353,
        0.07176706194877625,
        -0.20456218719482422,
        0.20349231362342834,
        0.03522491455078125,
        0.06661754846572876,
        -0.22698165476322174,
        0.14464432001113892,
        -0.25304004549980164,
        -0.17724189162254333,
        0.1536966860294342,
        -0.03602215647697449,
        -0.22777940332889557,
        0.16653040051460266,
        0.005956828594207764,
        -0.2537901997566223,
        -0.11839568614959717,
        0.11694508790969849,
        0.13042303919792175
      ],
      [
        0.17356932163238525,
        -0.16051755845546722,
        0.16993024945259094,
        0.005366712808609009,
        -0.20414957404136658,
        0.0760023295879364,
        0.09002053737640381,
        0.1946749985218048,
        -0.01673266291618347,
        -0.22158464789390564,
        0.08146175742149353,
        -0.18532931804656982,
        0.12922722101211548,
        0.03666171431541443,
        -0.22618134319782257,
        0.12292677164077759,
        -0.12942948937416077,
        0.25961968302726746,
        0.041177600622177124,
        -0.10936473309993744,
        -0.03210175037384033,
        -0.29814669489860535,
        0.25270703434944153,
        0.1133958101272583,
        -0.12176510691642761,
        -0.28433987498283386,
        -0.3001127243041992,
        -0.1898321509361267,
        -0.07870298624038696,
        -0.2896530032157898,
        -0.06850540637969971,
        0.19041454792022705
      ],
      [
        0.16702964901924133,
        0.0798567533493042,
        0.07926931977272034,
        0.11525353789329529,
        -0.26338982582092285,
        -0.11028774082660675,
        -0.2614540755748749,
        0.2517160475254059,
        -0.0003527998924255371,
        0.0321345329284668,
        -0.15343132615089417,
        0.0698067843914032,
        -0.3042950928211212,
        -0.09015268087387085,
        0.18465495109558105,
        0.06844502687454224,
        -0.010137498378753662,
        -0.10882051289081573,
        0.2493409812450409,
        -0.16507117450237274,
        0.14071252942085266,
        0.1560831367969513,
        -0.10894256830215454,
        0.2287539541721344,
        0.12475046515464783,
        -0.29270419478416443,
        0.25199994444847107,
        0.09608879685401917,
        -0.05931493639945984,
        -0.01915687322616577,
        -0.24467244744300842,
        0.2410801351070404
      ],
      [
        0.29434242844581604,
        0.07948249578475952,
        0.15080615878105164,
        -0.29122522473335266,
        0.07704997062683105,
        -0.2898547649383545,
        0.13461193442344666,
        -0.05798991024494171,
        -0.18254049122333527,
        -0.15789735317230225,
        0.02163076400756836,
        -0.06981723010540009,
        -0.24031271040439606,
        0.2676023542881012,
        0.07937604188919067,
        -0.07422842085361481,
        -0.14126966893672943,
        -0.0979703813791275,
        0.13463684916496277,
        0.18188202381134033,
        -0.3016815781593323,
        -0.2906509339809418,
        -0.23274052143096924,
        -0.29294079542160034,
        0.16196274757385254,
        0.21223846077919006,
        -0.010387152433395386,
        0.11953273415565491,
        -0.0927731841802597,
        0.09894433617591858,
        0.08203917741775513,
        0.0024937689304351807
      ],
      [
        0.23723837733268738,
        0.01240035891532898,
        -0.16176097095012665,
        -0.04560953378677368,
        0.0012872815132141113,
        -0.2762925922870636,
        -0.18633855879306793,
        0.022312015295028687,
        -0.14120973646640778,
        -0.2621700167655945,
        0.25035545229911804,
        0.24122074246406555,
        -0.2644822299480438,
        0.2702087461948395,
        -0.25755906105041504,
        0.2523569166660309,
        -0.05057188868522644,
        0.05865764617919922,
        -0.1316586434841156,
        -0.023943930864334106,
        -0.16115455329418182,
        0.012045592069625854,
        -0.295371413230896,
        0.1964465081691742,
        0.16043469309806824,
        0.057892948389053345,
        -0.28575143218040466,
        -0.09981940686702728,
        -0.036436229944229126,
        0.04249736666679382,
        0.016393929719924927,
        0.14280259609222412
      ],
      [
        0.18577486276626587,
        -0.058874160051345825,
        -0.13485248386859894,
        -0.09893347322940826,
        -0.26060158014297485,
        0.13294118642807007,
        0.16332611441612244,
        0.2958776652812958,
        -0.05716697871685028,
        0.22616395354270935,
        0.2783307731151581,
        0.1917429268360138,
        0.2620334327220917,
        -0.26390835642814636,
        -0.12900719046592712,
        -0.25337404012680054,
        -0.23080848157405853,
        0.202205091714859,
        0.26211056113243103,
        0.05115830898284912,
        0.013657063245773315,
        0.017195045948028564,
        0.1436435580253601,
        -0.2643733024597168,
        0.2540827691555023,
        0.030792325735092163,
        0.26924386620521545,
        0.23454448580741882,
        0.19084832072257996,
        -0.12975865602493286,
        -0.10951445996761322,
        -0.2106458842754364
      ],
      [
        -0.21286240220069885,
        0.2797977030277252,
        0.15940436720848083,
        0.13880640268325806,
        0.26525363326072693,
        0.2033998668193817,
        -0.07113693654537201,
        0.17033350467681885,
        -0.1729741394519806,
        0.07086676359176636,
        0.023628652095794678,
        0.24455967545509338,
        -0.22505049407482147,
        0.2727254331111908,
        -0.13438718020915985,
        -0.16856884956359863,
        -0.009678930044174194,
        0.28438541293144226,
        0.2090558111667633,
        -0.21494650840759277,
        -0.059919968247413635,
        0.10828739404678345,
        -0.19985276460647583,
        0.2866566479206085,
        -0.2435867041349411,
        0.05866822600364685,
        0.25262686610221863,
        0.09827041625976562,
        0.2737753093242645,
        0.2395273745059967,
        0.04233664274215698,
        -0.12404599785804749
      ],
      [
        -0.2679841220378876,
        -0.27306216955184937,
        -0.1993403136730194,
        -0.09963105618953705,
        -0.006223589181900024,
        0.0725494921207428,
        0.17162975668907166,
        -0.1705668717622757,
        -0.168310284614563,
        0.2658143937587738,
        -0.26952019333839417,
        -0.15186123549938202,
        0.24571195244789124,
        -0.19748902320861816,
        0.2703380286693573,
        -0.14253856241703033,
        0.060225099325180054,
        0.13981491327285767,
        -0.02138271927833557,
        -0.19109483063220978,
        0.15803277492523193,
        -0.29621997475624084,
        -0.1886412799358368,
        -0.20880839228630066,
        -0.2670065760612488,
        -0.2218618392944336,
        -0.14065317809581757,
        0.011556416749954224,
        -0.2480679154396057,
        0.051155298948287964,
        0.24490442872047424,
        0.08819764852523804
      ]
    ],
    "dense_49/bias:0": [
      0.0,
      0.0,
      0.0,
      0.0,
      0.0,
      0.0,
      0.0,
      0.0,
      0.0,
      0.0,
      0.0,
      0.0,
      0.0,
      0.0,
      0.0,
      0.0,
      0.0,
      0.0,
      0.0,
      0.0,
      0.0,
      0.0,
      0.0,
      0.0,
      0.0,
      0.0,
      0.0,
      0.0,
      0.0,
      0.0,
      0.0,
      0.0
    ],
    "dense_50/kernel:0": [
      [
        -0.30005156993865967,
        -0.18625840544700623,
        -0.16451019048690796,
        0.22636723518371582
      ],
      [
        0.26598262786865234,
        -0.23807209730148315,
        -0.16681301593780518,
        -0.13415056467056274
      ],
      [
        0.32346564531326294,
        -0.365359365940094,
        0.35569679737091064,
        -0.026969194412231445
      ],
      [
        0.3338856101036072,
        -0.18666982650756836,
        -0.030131876468658447,
        0.021560460329055786
      ],
      [
        -0.009555667638778687,
        0.3700715899467468,
        -0.2531587779521942,
        -0.30052801966667175
      ],
      [
        -0.02760341763496399,
        0.3750472664833069,
        -0.3236595392227173,
        0.30573326349258423
      ],
      [
        0.19287127256393433,
        -0.16558310389518738,
        -0.3878258764743805,
        0.3630145788192749
      ],
      [
        0.2836376428604126,
        -0.17565123736858368,
        -0.40431728959083557,
        -0.05562421679496765
      ],
      [
        -0.2213190793991089,
        -0.16967366635799408,
        0.39769119024276733,
        0.2763739824295044
      ],
      [
        0.04813361167907715,
        -0.32828882336616516,
        0.0901150107383728,
        -0.3305254578590393
      ],
      [
        -0.01626831293106079,
        0.21303904056549072,
        0.34299635887145996,
        -0.11545094847679138
      ],
      [
        -0.1581794023513794,
        -0.045067787170410156,
        0.024356454610824585,
        0.36979931592941284
      ],
      [
        0.24895024299621582,
        0.282076895236969,
        0.18847060203552246,
        -0.36530739068984985
      ],
      [
        -0.16610364615917206,
        0.003756910562515259,
        -0.185194730758667,
        0.1292923092842102
      ],
      [
        0.2620311379432678,
        -0.2589952051639557,
        -0.2782028019428253,
        0.3488866686820984
      ],
      [
        0.039733290672302246,
        0.2089664340019226,
        -0.31098294258117676,
        -0.058883070945739746
      ],
      [
        0.4081721901893616,
        -0.0822974443435669,
        -0.33531060814857483,
        0.09874320030212402
      ],
      [
        -0.3134475350379944,
        0.18140649795532227,
        -0.09683474898338318,
        0.009236305952072144
      ],
      [
        0.13973760604858398,
        0.08965587615966797,
        -0.1544264853000641,
        0.2351357340812683
      ],
      [
        0.10173135995864868,
        0.37925535440444946,
        0.32643842697143555,
        -0.1294846534729004
      ],
      [
        0.4059414863586426,
        -0.24064046144485474,
        -0.10618844628334045,
        0.3442807197570801
      ],
      [
        -0.3974528908729553,
        -0.19783715903759003,
        0.18209677934646606,
        -0.3468596637248993
      ],
      [
        -0.24842922389507294,
        0.2945275902748108,
        0.10384774208068848,
        0.3589954376220703
      ],
      [
        0.2639545798301697,
        -0.23254451155662537,
        0.26273030042648315,
        -0.2527810335159302
      ],
      [
        -0.14355602860450745,
        0.20364302396774292,
        0.11495852470397949,
        0.06026870012283325
      ],
      [
        -0.08996337652206421,
        -0.12757545709609985,
        -0.031134814023971558,
        0.3071458339691162
      ],
      [
        0.03985476493835449,
        -0.2629333436489105,
        -0.2160176783800125,
        0.31788140535354614
      ],
      [
        -0.38410353660583496,
        -0.3542845845222473,
        -0.12920600175857544,
        -0.2888041138648987
      ],
      [
        -0.06215503811836243,
        0.23724281787872314,
        0.07222190499305725,
        -0.3071044683456421
      ],
      [
        -0.32403066754341125,
        0.14424270391464233,
        -0.3188008964061737,
        -0.24785670638084412
      ],
      [
        0.0395735502243042,
        -0.2343921959400177,
        0.08782064914703369,
        0.36227142810821533
      ],
      [
        -0.018300652503967285,
        -0.06247672438621521,
        -0.3334353566169739,
        0.050314754247665405
      ]
    ],
    "dense_50/bias:0": [
      0.0,
      0.0,
      0.0,
      0.0
    ]
  },
  "crc32": "1608294902"
}