{
  "metadata": {
    "firmware_version": "1.0.0",
    "model_type": "TFLite",
    "input_shape": [
      5
    ],
    "output_shape": [
      4
    ],
    "compression_ratio": 1.0,
    "timestamp": "2025-09-25T19:39:07.292154",
    "quantization": false,
    "pruning": true
  },
  "model_data_b64": "HAAAAFRGTDMUACAAHAAYABQAEAAMAAAACAAEABQAAAAcAAAAjAAAAOQAAABQFgAAYBYAABwbAAADAAAAAQAAAAQAAABi6f//DAAAABwAAAA8AAAADwAAAHNlcnZpbmdfZGVmYXVsdAABAAAABAAAAJD///8HAAAABAAAAAgAAABkZW5zZV80MgAAAAABAAAABAAAALLs//8EAAAADgAAAGRlbnNlXzQwX2lucHV0AAACAAAANAAAAAQAAADc////CgAAAAQAAAATAAAAQ09OVkVSU0lPTl9NRVRBREFUQQAIAAwACAAEAAgAAAAJAAAABAAAABMAAABtaW5fcnVudGltZV92ZXJzaW9uAAsAAABoFQAAYBUAANASAAC4AgAAqAAAAKAAAACYAAAAkAAAAIgAAABoAAAABAAAAFrt//8EAAAAVAAAAAwAAAAIAA4ACAAEAAgAAAAQAAAAJAAAAAAABgAIAAQABgAAAAQAAAAAAAAAAAAKABAADAAIAAQACgAAAAIAAAACAAAABAAAAAYAAAAyLjEzLjAAALrt//8EAAAAEAAAADEuMTQuMAAAAAAAAAAAAACk5v//qOb//6zm//+w5v//5u3//wQAAAAAAgAAhxKIvgAPGL3cPjg+k3+Tvsqhi77qnIE+fJSaPe0Nwr6A74G+hnWlPhQXPj6cnAQ+fraoPvjNKD4obkk96OLKPjiuGj4gB4a+0BedPjL9lj5UwUE+oLoHvvSZFz70r4K9xd6rvtZnFb5AwIM8Ap6xviyBAj4orAA+lFixPiC7m72ABnA75ISjPobjgz6I4lo+TPuHPiiQ572R8WC+Ng63PnCLeD36Pp4+J9vJvkBBnzvo/Mq+QNzBOwzqJT4AZWA++rWpPmAZD7wYBPY9uPmOvq2ud76sMgq+7M+IPdB5iT6UH6e++FfHvn6mvT49hKO+MH/MvoCxLb2wTKQ+WOkTvfeRXr56daM+h8IlvpVEU75ACkM+AAN0Owgc4b107Z2+QKzPPYAE9Twg2e09BNuovtxlAL6AOnE83LCBPpDinL681Tk+pxC6vj0yJb6ACx++ETOcvsBoAT1KMKw+t/rEvl3AiL6i2cC+YMvoPYD+Ebsw2be+WpkQvnxgGj60sk0+GB9xvjrYpj7k5Tg+gNpHPLA6eb0E27g9GFPWPXQpOz50JIE9VpqiPtZgnT5Mtuq9dCiWPRiJar2jTyO+ag6hPmjk+705kma+4HnCvTrEzr6AsuE7COnvPdZkbr68Dok+sFhOvaK5gz6It5O9RNVRPqZ8jL60uwU+wLVWPctEI77y7///BAAAAAAQAACIqhK9Qj9ZPjcnHL7ZqJc+NLvYvTj8Xb6e+LS9IAZuPNqFfz5aDl2+WKxyvToogb508Ro+DndlPtBs/j09qos+gDzHO7gAPL1wvXE96HHfvZpxbz4Ap3G7bRMvvo7Rqr3/mS++oLklvvYh7L3SJaa9KLEevWxC7L1EWUM+TCUOvrBppj0iiZq9kFM2PXi6Qr6rGhW+4B0FPMUUBb7Wdgg+S9iavtWKhr5yopy+ILCdvTLufz7Qncq88H/wPL3jiD52uVA+C5+Mvibccr4KFUM+0stiPkrKYD5E5oC9hjgdPnriOj7k6I2+FBwevog9QT6gZ1O81D2OvtbD8b3Ahb671tY7vpQOwz2EN+W9CHoKvrytAj7dKAe+Cu53PvbHgL4YKN29JsYmvkAWULyQFYm80W2UPq+rFb7mX14+hK86vrQ7fr1AXRQ+ejKGvumAOb6/k5u+AF+kvF7nGD782ny+jrNmvjyUoT18lrC9gGeCu9GHiD7+qxE+oIfIPK6Tfj7KjT2+XlisvQxht71ULkY+y6OXPuBvoj0gc0g9opkDvvMCmb6wBWo95FApvgCyaTxmDFc+EN4HPaGAE74ua3k+4CWcPQIIST6/7iW+Ak2evcCwNT6ASD29hPmbvh5Njr0kwuE9FqYKPuZ6mL7aYAE+SDShPaC31jwU7dU9M5iJPn+AgT5XTYg+QP4hPa5FdD6AIOi87qBzPi8FPr7zS4S+IB1dvtAnAj1rVlO+kMYFPl5OIj5MWGG+utaGvqAuTb2wGWm+Yy+JvhjkBT7JLDe+Uo02vhLbML4WPFU+RnpRPkDacbwgqJS+cD3zPYA3HL7gIs+84k0nvqYhKD7U4SW+j7pmvth+WL5e7g4+pgzVvebJEz4udig+9MHdvXqIWD5W7m++yllWPnBRKL26YnC+iTmPPgAmxrzAnP894EacvsDixr10aBE+QOaFO9BszD1g/3C9wLaFvmAoqbzDwlq+8fqGPkI2PT6qI1s+eJW+PaTruL3mOXw+FCURPoCs4LzEXma9WlcRPty+4j3ty4m+GoABvm/3kz7I0kG9H+CbPjD4mb4O6GW+ZlFlPoKM5709nZI+Q1OMPmfEnD6S44K9Ct2SvpDqhrxAUgE+4isgPqhuCT4uhMa9W5iZPswcPj5Yxtg94lNDvu8Dl74y97+9p/6Zvp9YK74EPtU9vm0APt6kID72miw+gEUKPtBewbwQmsC8cOTZPaibKb30XRk+bK0HPiu7kD5k1qs9ABXYujahLz5whUK9+PopPZa4G77Kcmm+eN0ZPXrkmb4+bcW90i5ZPh6+7L0mc5u+zONTvrZEyb1IP1Y9FMgzPvwpDD6g8gI+wLoWPQCyM7y5HCW+hquSvmJhZD54DpW+EiUFPtlbXr4zmYs+WAVBPbg52z3rO4M+cnTCvd5zH76URnK+sM8jvpTg/D2AW568li14vuL9h75sOr69DicnvjTIpb21yBy+OGPZPVqGCj6wk8C8qh5rvtK7FT6q2NO9YICVPIL/YT7exkc+YOIWPThcHz4c0Dq+W+wpvkitBT2ayjO+GGSuvd7FYD4FUkK+Os9jPoykE760CAo+mtBgPgCapzwIuD09yGbcPRKlJb7Dg1C+aukivvIshL7XpJo+QEXovVBH7jzKN1a+sC8SPivLGb58oku+PE6CvtAWkj2ZC0S+pdmWPnrTDL60eeo9IDs0PQBt1bsAEnu8CLTxPQjSZb4eBBY+LD0sPrDR4Dw6EEs+jfA3vqAuBT65siK+qvICPjhsSb3A+MC7BCkgvhKYVz5SBXY+mqZXvqAbNTx/aWi+UBKuPTCxmz3Aysk9chxePm5tcz5gQX08AYmbPimglz66wV4+inQMviQx8r1wK+c9wGtCPCDwlLx41hY+ouMBvmLDBD4gANQ9jgl6PkCCN775VUW+EeuHPgcylT46J3c+XKqEvoDhsrwvjYs+uCL7Pa9pE75RaIg+QHEpvSxYib2iJZS+AOFXvYBUhTsIRFm+uv1qPiaxUz5Ymxw9YIH+vMB7YL5QiBa++M1LPagPlb65F5u+oRyXPsiCfz10LD4+LVNWvuGxhD6fUo2+r9aTvgg6Eb7MNJs9zcGWPmAcNL7J/TK+7MyLvpgQNj38fSw+IEKkvcpQ+b2o8O69yFAZPWxc6j3g5Ts8gIP0vKBgIb2UCqs9aGMGPiy8lr6ADi67ujGmvSSI9j1YKRO+iFwgvnnjhb5OMwg+1OL0PX58fz7IRWG9QEpYvQL6qr2krws+gIFOPT4DSD6dflC+wN/FvNPXjj4oSxU9vtkgvsh3CD2AomM95qEiPmENmL72mGW+yNP7vaWWgz5f8B2+VrIFPkj1xj15aXm+hsoBPkB5LTw05dU9WJQFPfimlr4f0Je+0NrEvbshm74cN/E9Gpg5Pqn8Lb74hWg9dhoZPvEDDL40Mou+7Jr8Pf/AhT6QUMc9B9SaPhA3T72ulUm+aF5lvi2Vhj5XapE+QU8NvtLEjb4QrFC+1BmOPYhVLL2xAQ++RdNfvnBm0j37o5Q+GY+CvgAtTLxYzGK96GmHPZDacj1yU6K9YIERPAb+Tj4/7Iw+8nxPPor2NT4Gmke+IBNmvWLeRz7OE8a98XOTvk6Iar5G9sq9ZMwCPiAak7x0S5Q9GjFTvmjSG70Df4A++MoYPjy5LD7MLJg9QeCaPmySsD2wVL89po89viAYzT2BPoG+PL02PuBALD2QfrM8nDzdvSmzmD54Dha+qL9uPeB+5LzoGsy9TLqNPUCCzL1AjI++EBdKvYA9HL0AXDI8ceObvtqpir3g9Dy88NMWPpPreL6cbhQ+D98Wvkbvj77OaHm+0H8OvuAkJT6GV28+yLSbvSyllD0wRwo+oFdJvQRfNz4+EuG9GM4sPoRVpj2QHcU9MEXEvO7lWz6/5ZM+lSSVPgRx9b3Tgom+aohmPrMzlr6O1k++SA2VvmJKkL0L6GK+pI5TvtbeVD7ikks+AN62u2Tx8j04sze+aNJUvWFvkj60f6c95HO5PQI7Pz5Avj488F8kPtTpED5uy++9QH54PQoGlb5COkE+ZjNqPg+glL5CoKq9UN6cvYBoIruReh2+DOOyPSgZgL7dzSi+sJqMvmf7mz6gLtU8hGoYvrXFIr5EhNq9cldivlDHO71IXW2+KNwnPejq5b0DAY8+a06DPoDDOLvgHwo+uAp5PX4xO74gfEy+yCIWPbk/kT40IFO+RHqzPQ4ytL1kNLC9HQGGvp2slT5ojRy94ILIvPYNy70i6Fa+srpsvtS6xT1YY7s9kJAcPuhiHb2wYP49ZO3Oveg5pb2vOoC+zs4yPmBe7T3GNgG+0PefvDAqYL1Un3q94O9ovE9qib7kJdQ9HYGSPovygz6t85S++vFFPqDU4D0L75A+t0KPPigd4r1FuoM+oA0PPeUzij6i3YG+7t+UvrM1mr4mvOa9OEyHvojBeL3HOJg+mKo7PgKsiL5CO3W+QwSCvjipIz6sklK+QJzxvMlGij6Q5h6+5NPgvYAcLz7dPzO+IO2RPTZtJz7yuTi+AL7YvQdumz7PyCq+Znl7vrbTSD50qKI9xklOPid7gD6UDJQ9IAAovBCqJj27kYO+eO7evcxWMr54sDw9qFjgPQwKtz275na+lnZsPv7PYj6Gf4q+9AErvmYy9b0i5oO+UImdvMa6TD6FCpc+wOx7vrhsyr0+Vpq+QeYrvkBsR7y+i04+Cgp/Pj5Ni73C5W0+3hlRvgqTQ75atfe9uFGOPUk5iz4GPmw+eJyNvsORij4MtEU+qsdJPuCFUD3geAU8qKOpvfRIpT35R5U+tmF/PkyRl70SgI+9Qk5FPhXIjT6keee9+TmGPsyP371w/IO89sIbPi4wTT6As6W9FuJxPti6LT1zT0u+sIGovK7ZRD5mMGk+BimlvfbWXz4IM5u9NwsxvjgROD4g0z++wNYpvifGmj6ahjA+VXcjvkdrib7AHXc8bH8VvtStgr0mZF4+AMzhvCtYiz7c7+899+kSviCItD0zAIw+ONRKPYATYT0igq29X/yPvh0YmL7wHZ49PKdsvgBWNrrYphs9/kQJPjq5WT5y3M+9ULRMPf5C7L0eYi++GgIhviDheT3ITF09PhdYPjrEir3wy5a8GAd/PU79bT7rwpa+eDh/vWATuj2wGdy9FgyavoT23j2IlUC+0JANPl9Kbb7Ezec9oxKPvgBUhLzQq/28NfgFvlkmDr7VFZI+gBomvMYcRz6uNWW+WOUAPoW/jz5QMYe+NPo0Prr9n72OXXu+/wuHPvS1472E7bc9Sm18Ps48Dz6UISE+Zh5xPlBk1jwwNYq8Mm4kvrDu4jwfLwm+cEMOPo/Kkz6WQkw+XsZ2PoCrNj5+fmy+9qp1PnVCkD7sjps9GgBYvhDx4D3N5Jk+kFfTvEZyb763NSe+GGsXvRo5pb0zsZq+iDKHPX1TNL6YQsc9iOmCPV6sxr1wA3Q9P/Uovm8/i76GlSA+EMwQPYD8wT13l4c+1JkPPgyll766aOC9oGIfvA1ahj6YLJ69gEbUuxnaU77Oxji+oH9wvN3rmb7f8gu+6VCaPmhWOT6G75K+cobWvYhFWr4WWXE+PqwjPmdzjj5C6Dg+LFuivaS0ij0h2hW+tPipPdtmjD4+Hia++vtMvjMvhj6Y+Xm+4M49PNbiVT6Q7sa8gwZOvlIhXb6GgVg+nJhovojT0z0enBo+pl+LvdHOhz5Rp4c+zvYzPmQtjj24j2O+cAAgPXl0nD5obD6+8y+XPnKVID5sgXq+lAnMPZQKxT2QEAm9180NvjpTXz7Y1nE9SjZ9PhhtaL7+bVs+fppMvgJscL5nBEa+gwuDPrx0173oMF69IOitPRyZJT7Aasg9kGAYPornN77bQAG+TfCbvnzq6T1jj5w+yovsvb2sAr5g1Sa9qsp3PtAQzb1jYJw+oAoAvSRtBT5W91W+UjTIvWBTIr3aBLS9iQR0vmWdaL4A03I9vBeDvi4gUD7YsQ8+b7qIPjTVq734q2c9kBwSvf7aob2gUtS8tEkFPsvDUL4c8cY9eMCgPbCbNj5Iwxe+gpp2PjrOgL2u4fC9ngllPsByyrweI2c+ANkavfA4Xr2+gE8+9SwkvtAXF73nwxK+pqpnPvVokj7XqIy+3WErvpKHHr65KpK+yLVCvhhHLj3PCps+LeZdviaD/L0UeCc+dgPwvfinwz2gs5u8mFNzPW/be76MljE+OH1BvmBP0TxiOgy+YHNwvb/GgL6g7SQ91BEfPohBGj30uCU+8IfpPBAbWT08Sb49yITovQw8Hb6vnYY+InuTvUBq5LwYA3K9kJ1qPcn/ab6s5j6+AnYyvnR1gb6gH/u8eA3fPRyABz6o2DY+2TQCvrgaeL5k1KI92DNlPfTAXb4QSbu8pPR+vctfBr4gxOe8LJjbva6mmr0wwvU9Yr9zPogo9r3GtUm+CCprPdxewj0J5Qu+AAAGAAgABAAGAAAABAAAAIACAADyNDO+7ZFovsoPtj6gjoi8kevEvtDHnbz5gIW+RVzBvmgyq72Bcl2+NOqoPea+nj5ELI4+WFGUPpaltr5AmAe84inCPjjrNr34b4k+wMyjvsomxD572ie+5LbMvtzFd754/8M9kAcWvkgiZz2cjlg+SmSxvpQAn72M9cY9wPimPADo/joR5Fm+arayPuiRIj7STYi+xxJSvpCR3D36S6S+eFoqPvZIBb4MGXA+QExFPi4QeL4Abqq95pwDvlThSj4Eq1Q+oIDlvB7VNb6SPoM+EFRuvgwx+L1I6fE9RGi1PtLguj6yF3e+zOSiPoAlnTzEcUw+ADAYu7vSmb5EBXc+zkFJvr7Gxz5UwOm9CGo7PtjT0T2otpM+dB4DvlSvYz6ASuA8Fq/Dvr6trz6Z9ci+qGFjPR0Br76QeZ29SoChvujEEL0+iY8+cLZCvVhBzz3wjKm8JKYcPpMdSL7n5p2+QP4dPhCeez6Fsma+7Le8PuJenj44Nl49YAE7vnBeGT26Cq8+vEXBPn5zxj4SAcs+yqiPPvxMn70Yjiu+0qWgPrLgyr48BGw+HPY5PlS3Fz5GPwW+oHJGPCiiJz0A5KO9jS8ivvB/yD6AXlK76LYIvkhn+b1QR7K8bD+1PeSIgb7wN7K9uhaEPpYpLr7oOxq+nQ10vmAOfz5ISbE9AqgavgBVRLzwxME+3Xizvlz6nL04r5y+7LloPtxKkD6+jIE+wGtcvTJyu758IMu+4Ls0vP5wab4Ecxc+NGCUvjiGJ76ovQQ+5Dh3vtymAD6QkSA+APuOuopPpD6QvBk9yC70vdxOYT5UQIc+QEZwvF5wtD4K77I+3izGvkD3C7x0Jmw+YPv//2T7//8PAAAATUxJUiBDb252ZXJ0ZWQuAAEAAAAUAAAAAAAOABgAFAAQAAwACAAEAA4AAAAUAAAAHAAAAAgBAAAMAQAAEAEAAAQAAABtYWluAAAAAAQAAACwAAAAaAAAADQAAAAQAAAAAAAKABAADAAIAAQACgAAAAwAAAAQAAAAAQAAAAEAAAAHAAAAAQAAAAYAAACa////EAAAAAAAAAgMAAAAEAAAAAz8//8BAAAABgAAAAMAAAAFAAAAAwAAAP/////K////EAAAAAAAAAgQAAAAFAAAALr///8AAAABAQAAAAUAAAADAAAABAAAAAIAAAD/////AAAOABYAAAAQAAwACwAEAA4AAAAYAAAAAAAACBgAAAAcAAAAAAAGAAgABwAGAAAAAAAAAQEAAAAEAAAAAwAAAAAAAAABAAAA/////wEAAAAHAAAAAQAAAAAAAAAIAAAAHAMAALQCAABQAgAABAIAAHABAADcAAAAYAAAAAQAAAAa/f//AAAAARQAAAAcAAAAHAAAAAgAAAA0AAAAAgAAAP////8EAAAABP3//xkAAABTdGF0ZWZ1bFBhcnRpdGlvbmVkQ2FsbDowAAAAAgAAAAEAAAAEAAAAcv3//wAAAAEUAAAAHAAAABwAAAAHAAAAVAAAAAIAAAD/////BAAAAFz9//84AAAAZXNwMzJfYWN0b3IvZGVuc2VfNDIvTWF0TXVsO2VzcDMyX2FjdG9yL2RlbnNlXzQyL0JpYXNBZGQAAAAAAgAAAAEAAAAEAAAA6v3//wAAAAEUAAAAHAAAABwAAAAGAAAAbAAAAAIAAAD/////IAAAANT9//9SAAAAZXNwMzJfYWN0b3IvZGVuc2VfNDEvTWF0TXVsO2VzcDMyX2FjdG9yL2RlbnNlXzQxL1JlbHU7ZXNwMzJfYWN0b3IvZGVuc2VfNDEvQmlhc0FkZAAAAgAAAAEAAAAgAAAAev7//wAAAAEUAAAAHAAAABwAAAAFAAAAbAAAAAIAAAD/////IAAAAGT+//9SAAAAZXNwMzJfYWN0b3IvZGVuc2VfNDAvTWF0TXVsO2VzcDMyX2FjdG9yL2RlbnNlXzQwL1JlbHU7ZXNwMzJfYWN0b3IvZGVuc2VfNDAvQmlhc0FkZAAAAgAAAAEAAAAgAAAAbv///wAAAAEQAAAAEAAAAAQAAAAoAAAA5P7//xsAAABlc3AzMl9hY3Rvci9kZW5zZV80Mi9NYXRNdWwAAgAAAAQAAAAgAAAAtv///wAAAAEQAAAAEAAAAAMAAAAoAAAALP///xsAAABlc3AzMl9hY3Rvci9kZW5zZV80MS9NYXRNdWwAAgAAACAAAAAgAAAAAAAWABgAFAAAABAADAAIAAAAAAAAAAcAFgAAAAAAAAEQAAAAEAAAAAIAAAAsAAAAjP///xwAAABlc3AzMl9hY3Rvci9kZW5zZV80MC9NYXRNdWwxAAAAAAIAAAAgAAAABQAAAAAAFgAcABgAAAAUABAADAAAAAAACAAHABYAAAAAAAABFAAAACAAAAAgAAAAAQAAAEAAAAACAAAA/////wUAAAAEAAQABAAAACAAAABzZXJ2aW5nX2RlZmF1bHRfZGVuc2VfNDBfaW5wdXQ6MAAAAAACAAAAAQAAAAUAAAACAAAAIAAAAAQAAAD0////HAAAAAAAABwMAAwACwAAAAAABAAMAAAACQAAAAAAAAk=",
  "fisher_matrix": {
    "dense_40/kernel:0": {
      "values": [],
      "indices": [
        [],
        []
      ],
      "shape": [
        5,
        32
      ],
      "threshold": 0.0
    },
    "dense_40/bias:0": {
      "values": [],
      "indices": [
        []
      ],
      "shape": [
        32
      ],
      "threshold": 0.0
    },
    "dense_41/kernel:0": {
      "values": [],
      "indices": [
        [],
        []
      ],
      "shape": [
        32,
        32
      ],
      "threshold": 0.0
    },
    "dense_41/bias:0": {
      "values": [],
      "indices": [
        []
      ],
      "shape": [
        32
      ],
      "threshold": 0.0
    },
    "dense_42/kernel:0": {
      "values": [],
      "indices": [
        [],
        []
      ],
      "shape": [
        32,
        4
      ],
      "threshold": 0.0
    },
    "dense_42/bias:0": {
      "values": [],
      "indices": [
        []
      ],
      "shape": [
        4
      ],
      "threshold": 0.0
    }
  },
  "optimal_params": {
    "dense_40/kernel:0": [
      [
        -0.1750066578388214,
        -0.019260317087173462,
        0.08247795701026917,
        -0.008276045322418213,
        0.3831084370613098,
        -0.1465132236480713,
        0.09714803099632263,
        0.1587597131729126,
        0.1663607358932495,
        -0.08321762084960938,
        -0.17757079005241394,
        0.35431110858917236,
        0.19965273141860962,
        0.39018815755844116,
        -0.12804585695266724,
        -0.39249876141548157,
        -0.03534403443336487,
        0.15297752618789673,
        -0.22529037296772003,
        0.037443578243255615,
        0.2805846333503723,
        0.23048490285873413,
        0.04092612862586975,
        -0.13351023197174072,
        -0.08702075481414795,
        0.24907827377319336,
        -0.3505314886569977,
        0.25302690267562866,
        -0.22797009348869324,
        -0.2414279580116272,
        0.037533342838287354,
        0.35241979360580444
      ],
      [
        -0.22711916267871857,
        -0.26074960827827454,
        0.31005018949508667,
        0.37922579050064087,
        -0.1639193743467331,
        0.0564291775226593,
        0.020382285118103027,
        -0.26621872186660767,
        -0.1301611363887787,
        -0.12852820754051208,
        0.2563367486000061,
        0.3649964928627014,
        -0.0023221969604492188,
        -0.11413636803627014,
        0.22234851121902466,
        0.05551305413246155,
        0.2803439497947693,
        -0.19542531669139862,
        0.36859071254730225,
        0.3418787121772766,
        -0.07778355479240417,
        0.18160289525985718,
        -0.08002471923828125,
        -0.12177902460098267,
        0.2579858899116516,
        0.08656555414199829,
        -0.07664939761161804,
        -0.05381369590759277,
        0.14789968729019165,
        0.1256365180015564,
        -0.11922985315322876,
        0.3494799733161926
      ],
      [
        0.35558921098709106,
        -0.37765708565711975,
        0.27768146991729736,
        -0.04465791583061218,
        -0.3998328447341919,
        0.211481511592865,
        0.0019447803497314453,
        -0.20514975488185883,
        0.23447054624557495,
        0.1981251835823059,
        -0.2327425479888916,
        -0.24130132794380188,
        -0.300435870885849,
        0.1830216646194458,
        0.027379274368286133,
        -0.3418053686618805,
        -0.047537267208099365,
        -0.30840227007865906,
        0.3093176484107971,
        0.37748515605926514,
        -0.1675342321395874,
        0.14816027879714966,
        -0.1583845168352127,
        -0.02176252007484436,
        -0.1700805127620697,
        -0.1510315239429474,
        -0.30602431297302246,
        -0.3661056160926819,
        -0.28979647159576416,
        0.15680527687072754,
        0.2200273871421814,
        -0.38706105947494507
      ],
      [
        -0.01666957139968872,
        -0.0835922360420227,
        0.28968310356140137,
        0.2684323787689209,
        -0.24196571111679077,
        -0.3464682698249817,
        -0.2127840667963028,
        0.10769951343536377,
        0.1926736831665039,
        0.20768362283706665,
        -0.12118729948997498,
        0.3181518316268921,
        0.2412310242652893,
        0.10245484113693237,
        -0.3821951746940613,
        -0.07689201831817627,
        0.10119885206222534,
        0.15429019927978516,
        0.05425092577934265,
        0.3875998854637146,
        0.31376510858535767,
        -0.13012418150901794,
        0.3916010856628418,
        0.08849987387657166,
        -0.15061914920806885,
        -0.011983156204223633,
        0.22727173566818237,
        -0.3967322111129761,
        -0.1635979413986206,
        -0.0010908544063568115,
        0.26416265964508057,
        -0.008542835712432861
      ],
      [
        -0.38460972905158997,
        -0.21625711023807526,
        -0.3567320704460144,
        -0.31992149353027344,
        0.09570211172103882,
        -0.07763782143592834,
        0.3490479588508606,
        -0.3208921551704407,
        -0.24224922060966492,
        -0.028015434741973877,
        0.11812072992324829,
        0.019182920455932617,
        -0.19654008746147156,
        0.28850293159484863,
        0.3431224226951599,
        -0.3154318928718567,
        -0.020697087049484253,
        0.24572014808654785,
        -0.18262243270874023,
        0.39649254083633423,
        -0.396245539188385,
        0.012112289667129517,
        -0.0032099783420562744,
        -0.2529975175857544,
        -0.23833318054676056,
        0.37845563888549805,
        0.2818211317062378,
        -0.011031121015548706,
        0.1296297311782837,
        0.32091933488845825,
        -0.014665186405181885,
        0.23061543703079224
      ]
    ],
    "dense_40/bias:0": [
      0.0,
      0.0,
      0.0,
      0.0,
      0.0,
      0.0,
      0.0,
      0.0,
      0.0,
      0.0,
      0.0,
      0.0,
      0.0,
      0.0,
      0.0,
      0.0,
      0.0,
      0.0,
      0.0,
      0.0,
      0.0,
      0.0,
      0.0,
      0.0,
      0.0,
      0.0,
      0.0,
      0.0,
      0.0,
      0.0,
      0.0,
      0.0
    ],
    "dense_41/kernel:0": [
      [
        -0.03580716252326965,
        0.08125627040863037,
        -0.18343672156333923,
        -0.18511119484901428,
        0.25293347239494324,
        -0.22532103955745697,
        -0.056242719292640686,
        0.15687891840934753,
        -0.2864648699760437,
        -0.18243449926376343,
        -0.006513237953186035,
        0.011866509914398193,
        -0.3029153645038605,
        -0.26150110363960266,
        -0.09612047672271729,
        -0.07926072180271149,
        0.29824188351631165,
        -0.02395877242088318,
        -0.0833134800195694,
        0.29233255982398987,
        0.034925103187561035,
        0.0722896158695221,
        0.27192142605781555,
        -0.17289434373378754,
        -0.17127272486686707,
        -0.07812066376209259,
        0.0660143494606018,
        0.1805734932422638,
        0.09621158242225647,
        -0.0977560430765152,
        -0.14332543313503265,
        -0.15354937314987183
      ],
      [
        0.21215537190437317,
        -0.07545687258243561,
        0.09524264931678772,
        -0.08415292203426361,
        0.266215056180954,
        -0.21142137050628662,
        0.14193478226661682,
        0.16855987906455994,
        0.22302773594856262,
        -0.16594068706035614,
        -0.015324115753173828,
        -0.018180906772613525,
        0.2951402962207794,
        0.13300821185112,
        -0.30299171805381775,
        0.008880943059921265,
        -0.146539568901062,
        0.21474429965019226,
        -0.07659590244293213,
        -0.03822079300880432,
        0.26992717385292053,
        -0.010253936052322388,
        0.2307053506374359,
        0.17975318431854248,
        -0.1572345793247223,
        -0.24547407031059265,
        -0.1760997325181961,
        -0.0792754590511322,
        -0.03346306085586548,
        -0.03963029384613037,
        0.22623690962791443,
        0.2629217803478241
      ],
      [
        -0.15249334275722504,
        0.0445132851600647,
        -0.11192229390144348,
        -0.08954057097434998,
        0.03954911231994629,
        0.13958117365837097,
        0.1107155978679657,
        0.13503074645996094,
        -0.291126012802124,
        0.03263595700263977,
        0.11801916360855103,
        0.147302508354187,
        0.062380582094192505,
        0.11957326531410217,
        0.1177808940410614,
        0.2021408975124359,
        0.058288246393203735,
        0.2888621985912323,
        -0.0024781525135040283,
        -0.024476468563079834,
        -0.25364404916763306,
        0.04068952798843384,
        -0.2765843868255615,
        -0.18732881546020508,
        0.06100571155548096,
        0.2637633979320526,
        0.09729498624801636,
        0.06772735714912415,
        -0.1384805291891098,
        -0.08789987862110138,
        0.285957008600235,
        -0.07201220095157623
      ],
      [
        0.29621008038520813,
        -0.1901644468307495,
        -0.1352311372756958,
        0.19353610277175903,
        0.23854705691337585,
        -0.10402803122997284,
        -0.26913395524024963,
        -0.023604780435562134,
        0.13002422451972961,
        -0.1755775511264801,
        -0.2244340181350708,
        -0.12684491276741028,
        0.185716450214386,
        0.24949833750724792,
        0.18124428391456604,
        0.2752399146556854,
        -0.02789252996444702,
        0.29129472374916077,
        -0.15378786623477936,
        -0.0991477221250534,
        -0.290770947933197,
        -0.25697121024131775,
        0.27064332365989685,
        -0.16585826873779297,
        0.05402830243110657,
        -0.11118689179420471,
        0.0639219880104065,
        -0.14633990824222565,
        0.21809092164039612,
        -0.23829855024814606,
        -0.27472564578056335,
        -0.027882695198059082
      ],
      [
        -0.10582581162452698,
        -0.1456095427274704,
        0.12761586904525757,
        0.29617151618003845,
        -0.0283358097076416,
        0.1443248689174652,
        -0.12646523118019104,
        -0.02351096272468567,
        -0.21714724600315094,
        -0.08515185117721558,
        0.14650008082389832,
        0.12965157628059387,
        -0.2093016654253006,
        -0.054998189210891724,
        -0.16990913450717926,
        0.2026250660419464,
        -0.09966069459915161,
        -0.1198444664478302,
        0.0873471200466156,
        -0.2098698914051056,
        -0.30119094252586365,
        -0.108853280544281,
        0.19306963682174683,
        0.3022930324077606,
        0.2110261619091034,
        0.08980849385261536,
        -0.09700845181941986,
        0.08299389481544495,
        0.059042781591415405,
        -0.2271629124879837,
        -0.16736550629138947,
        -0.05908498167991638
      ],
      [
        -0.21678245067596436,
        0.00812479853630066,
        -0.13199181854724884,
        0.0793149471282959,
        0.23791858553886414,
        0.16451331973075867,
        0.2889971435070038,
        0.1063927412033081,
        0.272653192281723,
        0.21950480341911316,
        0.16820210218429565,
        0.1035158634185791,
        0.2591696083545685,
        -0.052805185317993164,
        0.05676838755607605,
        0.1776982843875885,
        0.06920298933982849,
        -0.2685762345790863,
        -0.25019192695617676,
        -0.23118093609809875,
        -0.11266355216503143,
        -0.1741592288017273,
        0.19705072045326233,
        0.1723884642124176,
        -0.06775708496570587,
        0.24651065468788147,
        0.059573590755462646,
        0.2742222249507904,
        0.2472774088382721,
        0.05928325653076172,
        -0.15481403470039368,
        0.05727916955947876
      ],
      [
        -0.08836482465267181,
        -0.1299620419740677,
        0.2421189844608307,
        0.04893791675567627,
        -0.18556664884090424,
        -0.10828009247779846,
        -0.047320157289505005,
        -0.04140821099281311,
        0.047124236822128296,
        -0.18976600468158722,
        0.027443736791610718,
        0.24417707324028015,
        -0.27602097392082214,
        -0.08348466455936432,
        0.14951500296592712,
        -0.1949234902858734,
        -0.09985780715942383,
        0.22512975335121155,
        -0.16484780609607697,
        0.09654775261878967,
        -0.2642533779144287,
        0.046066731214523315,
        0.05090892314910889,
        -0.15963490307331085,
        -0.01840779185295105,
        0.13988038897514343,
        -0.16499803960323334,
        -0.16222473978996277,
        -0.22697865962982178,
        -0.25604045391082764,
        -0.2854821979999542,
        -0.22851480543613434
      ],
      [
        0.014527827501296997,
        0.13326582312583923,
        -0.2515255808830261,
        -0.12851575016975403,
        -0.25839194655418396,
        0.21145811676979065,
        0.304444283246994,
        0.14977246522903442,
        0.10704368352890015,
        0.22247019410133362,
        0.19830408692359924,
        -0.17920780181884766,
        -0.28874728083610535,
        0.13641220331192017,
        -0.1367337852716446,
        -0.05617058277130127,
        -0.2803668975830078,
        -0.29336318373680115,
        -0.27461767196655273,
        0.09149807691574097,
        -0.060731440782547,
        0.10954409837722778,
        0.008146494626998901,
        -0.2683965861797333,
        0.06226262450218201,
        0.15735465288162231,
        -0.2719683349132538,
        -0.20017996430397034,
        0.21428677439689636,
        0.20324775576591492,
        -0.1901465654373169,
        -0.1864268183708191
      ],
      [
        0.24953404068946838,
        -0.3024314343929291,
        -0.10798662900924683,
        -0.2988506257534027,
        -0.21593141555786133,
        -0.23430761694908142,
        -0.3007216453552246,
        0.13249748945236206,
        0.25631651282310486,
        -0.14418238401412964,
        -0.17962856590747833,
        -0.1927107721567154,
        -0.1418229341506958,
        0.05041646957397461,
        -0.27186739444732666,
        0.19518426060676575,
        -0.04933840036392212,
        -0.20296689867973328,
        0.3046524226665497,
        0.15289521217346191,
        0.29730817675590515,
        0.08937463164329529,
        -0.08283168077468872,
        0.015082776546478271,
        0.23241159319877625,
        0.23546752333641052,
        0.1568203866481781,
        0.2620788514614105,
        -0.19980809092521667,
        0.1403268575668335,
        0.04254826903343201,
        -0.17427828907966614
      ],
      [
        -0.2158750593662262,
        -0.2627779543399811,
        -0.16286525130271912,
        0.05713433027267456,
        0.031776249408721924,
        0.20932689309120178,
        -0.2245180308818817,
        0.2826779782772064,
        -0.0949486643075943,
        0.1347988247871399,
        0.13006067276000977,
        0.26546528935432434,
        0.07578429579734802,
        0.1953248679637909,
        0.123342365026474,
        -0.0967174619436264,
        -0.038144588470458984,
        -0.29111695289611816,
        0.02602320909500122,
        -0.038424402475357056,
        0.18326795101165771,
        -0.241114541888237,
        0.08070555329322815,
        -0.1459938883781433,
        -0.2944558560848236,
        0.02617087960243225,
        0.03535085916519165,
        -0.2441161870956421,
        -0.2347870171070099,
        0.26704737544059753,
        0.30281683802604675,
        -0.2528492212295532
      ],
      [
        -0.05924639105796814,
        -0.3059268593788147,
        -0.01270061731338501,
        -0.1653476357460022,
        -0.2063843458890915,
        -0.041093289852142334,
        0.2239433228969574,
        0.08390501141548157,
        -0.1557154357433319,
        0.21954575181007385,
        -0.1588848978281021,
        0.2913973033428192,
        0.2944473326206207,
        -0.20360799133777618,
        0.26123806834220886,
        -0.2879939377307892,
        0.010886192321777344,
        -0.07045437395572662,
        -0.14884382486343384,
        0.12420785427093506,
        -0.2669373154640198,
        0.23092111945152283,
        0.2915647327899933,
        -0.06380811333656311,
        -0.062309712171554565,
        -0.01687106490135193,
        0.09471988677978516,
        0.011584967374801636,
        -0.19337616860866547,
        -0.0839027464389801,
        -0.21669836342334747,
        -0.030654728412628174
      ],
      [
        -0.2522600293159485,
        -0.0769960880279541,
        -0.016733914613723755,
        0.014263629913330078,
        0.13064026832580566,
        -0.2347516119480133,
        -0.11306096613407135,
        -0.0016485750675201416,
        -0.23659735918045044,
        0.02045917510986328,
        0.1278788149356842,
        0.24136057496070862,
        -0.1758894920349121,
        -0.02415454387664795,
        0.09732162952423096,
        -0.22903558611869812,
        -0.30446961522102356,
        -0.22158829867839813,
        -0.1589573174715042,
        -0.10103872418403625,
        -0.23948386311531067,
        0.2214965522289276,
        0.2493961751461029,
        0.21717891097068787,
        0.09085726737976074,
        -0.16057661175727844,
        0.2648274600505829,
        0.20887312293052673,
        0.25594720244407654,
        0.05656048655509949,
        -0.12329702079296112,
        0.1089124083518982
      ],
      [
        0.1513116955757141,
        0.24993208050727844,
        0.2899003326892853,
        0.21000823378562927,
        0.15850207209587097,
        0.27973583340644836,
        0.2863558828830719,
        0.1715134084224701,
        -0.1599719524383545,
        0.04631808400154114,
        -0.04917547106742859,
        -0.25911223888397217,
        -0.1747962385416031,
        0.27899035811424255,
        0.3023988902568817,
        -0.09910254180431366,
        -0.06770677864551544,
        -0.20659881830215454,
        -0.10669758915901184,
        -0.0806768536567688,
        -0.253938764333725,
        -0.2705041766166687,
        -0.07400760054588318,
        -0.027563095092773438,
        -0.10747087001800537,
        0.02770170569419861,
        0.14023524522781372,
        -0.024283677339553833,
        -0.10520312190055847,
        -0.035671770572662354,
        0.16354399919509888,
        0.13232463598251343
      ],
      [
        0.2240869700908661,
        -0.02473345398902893,
        -0.1461627334356308,
        0.03317075967788696,
        -0.22006338834762573,
        -0.02418804168701172,
        0.2740727365016937,
        -0.04749053716659546,
        0.12347522377967834,
        0.10761791467666626,
        -0.005889028310775757,
        -0.021836042404174805,
        -0.2730478048324585,
        0.03644862771034241,
        -0.05058962106704712,
        0.12773281335830688,
        -0.011532992124557495,
        0.20788130164146423,
        -0.22103670239448547,
        -0.25044772028923035,
        0.15982520580291748,
        -0.16699963808059692,
        -0.07006849348545074,
        0.27215704321861267,
        -0.30087345838546753,
        -0.13396881520748138,
        -0.2961810827255249,
        -0.20119671523571014,
        -0.05424585938453674,
        -0.07903097569942474,
        -0.11719410121440887,
        0.17856085300445557
      ],
      [
        0.12423098087310791,
        0.029357880353927612,
        0.21716269850730896,
        -0.1440453678369522,
        -0.2633569836616516,
        0.12481069564819336,
        0.30618593096733093,
        0.04149910807609558,
        -0.019330739974975586,
        -0.16176250576972961,
        -0.1564064621925354,
        0.27256152033805847,
        0.044449418783187866,
        -0.15708062052726746,
        -0.19686004519462585,
        -0.017956793308258057,
        0.1472928524017334,
        0.19880250096321106,
        -0.04584437608718872,
        0.17461702227592468,
        -0.2056376338005066,
        -0.11972503364086151,
        0.19268134236335754,
        0.11715671420097351,
        0.10886862874031067,
        0.13892912864685059,
        -0.10957475006580353,
        -0.21594741940498352,
        0.0849153995513916,
        -0.025918304920196533,
        0.09553521871566772,
        -0.12715472280979156
      ],
      [
        0.27278319001197815,
        0.267362505197525,
        -0.18231016397476196,
        0.2435729205608368,
        -0.05009329319000244,
        -0.30522823333740234,
        -0.06391061842441559,
        -0.15207132697105408,
        -0.2423613965511322,
        -0.20362763106822968,
        0.2105410397052765,
        0.12262481451034546,
        0.16844934225082397,
        0.033317357301712036,
        -0.2239929437637329,
        0.07240954041481018,
        -0.24308614432811737,
        -0.0055806636810302734,
        -0.23180115222930908,
        0.11590266227722168,
        -0.02949345111846924,
        -0.2576151490211487,
        0.27691712975502014,
        -0.1434706300497055,
        -0.1880704164505005,
        0.28865477442741394,
        -0.009728103876113892,
        0.2114315927028656,
        0.16171687841415405,
        0.13016396760940552,
        -0.019006550312042236,
        -0.24228942394256592
      ],
      [
        0.006080210208892822,
        0.2038324773311615,
        -0.06206865608692169,
        0.07624411582946777,
        -0.22763705253601074,
        -0.09711217880249023,
        -0.2868426442146301,
        -0.2279769480228424,
        -0.26560884714126587,
        -0.15909352898597717,
        0.24025467038154602,
        -0.14395783841609955,
        -0.08020424842834473,
        0.055574893951416016,
        0.2628568708896637,
        -0.20624199509620667,
        0.144953191280365,
        0.1186244785785675,
        0.040981441736221313,
        -0.12618550658226013,
        0.2700712978839874,
        -0.019230514764785767,
        -0.11302497982978821,
        0.0881502628326416,
        0.13824772834777832,
        0.19947275519371033,
        0.26240578293800354,
        -0.22714465856552124,
        0.09785985946655273,
        -0.20387189090251923,
        0.059405893087387085,
        0.07950666546821594
      ],
      [
        -0.04589912295341492,
        -0.274650901556015,
        0.14488697052001953,
        0.1963196098804474,
        -0.26793965697288513,
        0.1420000195503235,
        -0.01646926999092102,
        0.0375647246837616,
        -0.09288486838340759,
        -0.2581554055213928,
        -0.2105964720249176,
        0.2664208710193634,
        -0.12173612415790558,
        0.1588207185268402,
        0.28401443362236023,
        -0.03804245591163635,
        -0.14733527600765228,
        -0.17939460277557373,
        -0.11226445436477661,
        -0.019527345895767212,
        -0.15517640113830566,
        0.19993123412132263,
        0.2621610462665558,
        0.2734390199184418,
        -0.23172901570796967,
        0.24099108576774597,
        -0.07723349332809448,
        0.10343080759048462,
        0.14880585670471191,
        0.09713956713676453,
        -0.2459542602300644,
        0.055957645177841187
      ],
      [
        0.05901855230331421,
        -0.23716792464256287,
        -0.2621038556098938,
        -0.16204355657100677,
        0.13075292110443115,
        0.004086285829544067,
        0.12629032135009766,
        -0.3005712628364563,
        -0.1632349193096161,
        0.30203887820243835,
        0.01105394959449768,
        -0.04136776924133301,
        -0.11666995286941528,
        -0.29697707295417786,
        -0.13799764215946198,
        0.2509690225124359,
        -0.2811223864555359,
        -0.05195847153663635,
        0.2793045938014984,
        -0.05472773313522339,
        -0.10977914929389954,
        0.29500213265419006,
        -0.10916098952293396,
        0.04951879382133484,
        0.11318543553352356,
        0.1783885955810547,
        -0.00647813081741333,
        0.15098616480827332,
        -0.17959418892860413,
        0.07849210500717163,
        0.1734258532524109,
        -0.2165563702583313
      ],
      [
        -0.1091039776802063,
        0.19050994515419006,
        -0.18115581572055817,
        -0.07729531824588776,
        -0.17888177931308746,
        0.09981691837310791,
        0.15641739964485168,
        -0.09639976918697357,
        -0.08094826340675354,
        -0.11341333389282227,
        -0.22696493566036224,
        -0.06706270575523376,
        0.03743055462837219,
        -0.2242163121700287,
        -0.2768922448158264,
        0.14921176433563232,
        -0.24356386065483093,
        0.28600600361824036,
        0.256457656621933,
        -0.061187103390693665,
        0.1710071563720703,
        -0.24602031707763672,
        -0.0161115825176239,
        0.05495023727416992,
        -0.2794390618801117,
        -0.23095127940177917,
        -0.2068866640329361,
        -0.06805352866649628,
        -0.12622396647930145,
        0.178328275680542,
        -0.18895423412322998,
        -0.022861987352371216
      ],
      [
        0.23383179306983948,
        0.22148063778877258,
        -0.3038615882396698,
        0.17743206024169922,
        -0.17827346920967102,
        -0.058837294578552246,
        0.13421118259429932,
        0.21209266781806946,
        -0.1531093865633011,
        0.02908673882484436,
        0.08499586582183838,
        -0.28934961557388306,
        0.11443409323692322,
        -0.12296253442764282,
        -0.2037813663482666,
        0.16867536306381226,
        -0.1391594409942627,
        0.08178654313087463,
        -0.002819269895553589,
        -0.014217346906661987,
        -0.17504830658435822,
        -0.09884017705917358,
        0.15211090445518494,
        -0.08472086489200592,
        -0.016153335571289062,
        0.23990997672080994,
        -0.18044587969779968,
        0.26524975895881653,
        -0.30456772446632385,
        -0.14820587635040283,
        0.025550544261932373,
        -0.06224502623081207
      ],
      [
        -0.0036873221397399902,
        0.2195216715335846,
        -0.020064830780029297,
        -0.04621171951293945,
        -0.17271068692207336,
        -0.26115989685058594,
        -0.09693180024623871,
        -0.11559699475765228,
        0.10614627599716187,
        -0.20919719338417053,
        0.07602155208587646,
        -0.052704811096191406,
        0.011468380689620972,
        0.25700870156288147,
        0.06938520073890686,
        0.07430419325828552,
        0.16127347946166992,
        0.09055307507514954,
        0.1348872184753418,
        -0.26838919520378113,
        0.07125306129455566,
        -0.30143922567367554,
        0.20037910342216492,
        -0.28122231364250183,
        -0.030965715646743774,
        0.28175702691078186,
        -0.014678865671157837,
        0.26494839787483215,
        0.11421677470207214,
        0.24082377552986145,
        -0.13694146275520325,
        -0.13122479617595673
      ],
      [
        -0.170972540974617,
        -0.06293919682502747,
        0.1493200957775116,
        -0.3046380281448364,
        0.20823702216148376,
        -0.02064913511276245,
        0.2999905049800873,
        -0.3036128878593445,
        0.1352781355381012,
        0.1427600383758545,
        0.09853124618530273,
        0.004068911075592041,
        -0.02984786033630371,
        -0.15423725545406342,
        -0.04207375645637512,
        0.3024921715259552,
        0.23373231291770935,
        0.18674853444099426,
        0.06080123782157898,
        0.10358789563179016,
        0.1635025441646576,
        -0.16787053644657135,
        -0.08090877532958984,
        -0.29705896973609924,
        -0.13082964718341827,
        0.07595619559288025,
        -0.30062761902809143,
        0.17574617266654968,
        0.30578145384788513,
        -0.062893345952034,
        -0.05870378017425537,
        -0.028291761875152588
      ],
      [
        -0.08340750634670258,
        0.15353593230247498,
        -0.2469291090965271,
        -0.06948302686214447,
        0.20456799864768982,
        -0.21363358199596405,
        0.18565672636032104,
        -0.20692366361618042,
        -0.023507922887802124,
        -0.1501890867948532,
        0.2169053852558136,
        -0.21217358112335205,
        -0.039398789405822754,
        0.13056311011314392,
        -0.13965488970279694,
        0.08621677756309509,
        -0.07602840662002563,
        0.011642038822174072,
        -0.18280598521232605,
        0.2861413061618805,
        -0.18039682507514954,
        -0.012171804904937744,
        0.23621401190757751,
        0.07720553874969482,
        -0.13881815969944,
        -0.21093788743019104,
        -0.13666866719722748,
        0.06942251324653625,
        -0.11550100147724152,
        -0.11761794984340668,
        -0.25151631236076355,
        -0.10722383856773376
      ],
      [
        -0.17148588597774506,
        0.1825045645236969,
        -0.2252943217754364,
        0.11023357510566711,
        -0.014761507511138916,
        0.26363328099250793,
        0.1058470606803894,
        -0.09827558696269989,
        -0.2296091616153717,
        -0.1988620162010193,
        0.23772212862968445,
        0.22948351502418518,
        0.08351626992225647,
        0.09714752435684204,
        -0.21857936680316925,
        0.09342324733734131,
        0.07258066534996033,
        0.1605222225189209,
        -0.1996922492980957,
        0.2577098309993744,
        -0.10583114624023438,
        0.2017049491405487,
        0.04241451621055603,
        -0.231106698513031,
        0.28532281517982483,
        0.10983479022979736,
        0.30139854550361633,
        -0.22222793102264404,
        -0.12761206924915314,
        0.22366949915885925,
        0.040265679359436035,
        -0.07551322877407074
      ],
      [
        -0.16184091567993164,
        -0.2771674394607544,
        0.07889601588249207,
        0.13539919257164001,
        -0.2903451919555664,
        0.18477728962898254,
        -0.19074967503547668,
        0.05230644345283508,
        0.14622429013252258,
        -0.25450313091278076,
        0.015457481145858765,
        0.206730455160141,
        0.13123857975006104,
        -0.24356640875339508,
        0.10273444652557373,
        -0.18511828780174255,
        0.13503718376159668,
        0.14151698350906372,
        0.036654263734817505,
        -0.2909215986728668,
        0.3035738170146942,
        0.2490617334842682,
        -0.19854526221752167,
        -0.0006955564022064209,
        -0.010138154029846191,
        0.3005737364292145,
        0.1809936761856079,
        0.03906291723251343,
        -0.040730834007263184,
        -0.02471292018890381,
        0.15534144639968872,
        0.11999928951263428
      ],
      [
        -0.11529915034770966,
        -0.15440398454666138,
        -0.0862245261669159,
        -0.29781264066696167,
        0.11876952648162842,
        0.21400323510169983,
        -0.2949518859386444,
        0.17556792497634888,
        -0.10344059765338898,
        0.07133257389068604,
        0.30377963185310364,
        0.03823408484458923,
        -0.29440438747406006,
        0.12674912810325623,
        0.29031357169151306,
        0.1001436710357666,
        -0.0491558313369751,
        -0.1170872300863266,
        0.2836892902851105,
        0.1933058798313141,
        -0.16678164899349213,
        -0.06801842153072357,
        -0.020569652318954468,
        0.038000911474227905,
        0.19444569945335388,
        -0.02579858899116516,
        -0.2869836688041687,
        0.3055761158466339,
        0.2419840395450592,
        0.2257198989391327,
        0.037660151720047,
        0.23803475499153137
      ],
      [
        -0.08112682402133942,
        0.1887112855911255,
        -0.003979623317718506,
        0.12634602189064026,
        -0.1525554656982422,
        0.0930585265159607,
        -0.09373320639133453,
        0.13687890768051147,
        0.018249690532684326,
        -0.19145049154758453,
        0.2961438000202179,
        -0.03106755018234253,
        -0.002655893564224243,
        0.010587990283966064,
        -0.25499799847602844,
        -0.2524299919605255,
        0.17907339334487915,
        0.06066727638244629,
        -0.20617753267288208,
        0.10978055000305176,
        -0.2455802857875824,
        0.23232176899909973,
        0.19223663210868835,
        0.13405224680900574,
        -0.22383758425712585,
        -0.23383435606956482,
        -0.10474862158298492,
        -0.18596041202545166,
        -0.10012972354888916,
        -0.037804603576660156,
        0.1618383526802063,
        -0.12019449472427368
      ],
      [
        -0.038743168115615845,
        -0.0129031240940094,
        0.2666611969470978,
        0.07871299982070923,
        -0.025285184383392334,
        -0.09029319882392883,
        -0.30077096819877625,
        0.12787866592407227,
        0.22070124745368958,
        0.2946292459964752,
        0.21753588318824768,
        -0.2192220687866211,
        -0.08114953339099884,
        0.1044410765171051,
        -0.01246190071105957,
        0.17845624685287476,
        -0.10989807546138763,
        -0.2910616993904114,
        0.08763554692268372,
        0.283073753118515,
        0.19612011313438416,
        -0.20420023798942566,
        0.22772368788719177,
        0.21262064576148987,
        0.12587487697601318,
        -0.1632908433675766,
        -0.2131558656692505,
        0.29528769850730896,
        0.3054228723049164,
        -0.05425351858139038,
        0.028507202863693237,
        -0.1969824731349945
      ],
      [
        -0.11536106467247009,
        -0.27781546115875244,
        0.1422576606273651,
        0.02621060609817505,
        -0.16338303685188293,
        0.2463146150112152,
        -0.16733025014400482,
        0.03679919242858887,
        0.19509455561637878,
        -0.13752546906471252,
        -0.13716331124305725,
        -0.1470043659210205,
        0.12037685513496399,
        0.03261217474937439,
        -0.05537065863609314,
        0.042054057121276855,
        0.1687549352645874,
        0.18869879841804504,
        -0.08798609673976898,
        0.27980586886405945,
        0.07942286133766174,
        -0.1909905970096588,
        -0.0806446522474289,
        -0.1014946848154068,
        0.2807580530643463,
        -0.03696736693382263,
        0.2356913983821869,
        0.15682008862495422,
        -0.031260132789611816,
        0.20263954997062683,
        0.053004324436187744,
        0.05741313099861145
      ],
      [
        0.1907702088356018,
        -0.11804930865764618,
        0.0244787335395813,
        0.1044560968875885,
        0.1641908586025238,
        0.141743004322052,
        0.10412219166755676,
        -0.010967731475830078,
        0.036836981773376465,
        0.11448994278907776,
        -0.1182577908039093,
        0.0497569739818573,
        -0.14371240139007568,
        -0.29424262046813965,
        0.0661199688911438,
        0.021910935640335083,
        0.08121779561042786,
        0.22871169447898865,
        -0.08603742718696594,
        -0.11040717363357544,
        0.201453298330307,
        -0.12095136940479279,
        0.21859344840049744,
        0.049976646900177,
        -0.26404809951782227,
        -0.08067531883716583,
        0.15983673930168152,
        -0.24463433027267456,
        0.1302991509437561,
        -0.16032774746418,
        0.09291312098503113,
        0.0949074923992157
      ],
      [
        -0.13881415128707886,
        -0.005814284086227417,
        0.2486102283000946,
        0.2687393128871918,
        -0.16199427843093872,
        -0.02742600440979004,
        0.12541863322257996,
        -0.16124238073825836,
        0.15562522411346436,
        0.04400169849395752,
        0.11287581920623779,
        -0.2911350727081299,
        -0.15660297870635986,
        -0.296509712934494,
        0.05929046869277954,
        -0.10802575945854187,
        0.09624779224395752,
        -0.2902836501598358,
        -0.2617272436618805,
        0.25728049874305725,
        0.25093957781791687,
        0.06949180364608765,
        -0.07578092813491821,
        -0.11536215245723724,
        0.17673569917678833,
        -0.302133172750473,
        0.2782242000102997,
        0.09962764382362366,
        -0.20895132422447205,
        -0.036887943744659424,
        -0.11353451013565063,
        -0.13661588728427887
      ]
    ],
    "dense_41/bias:0": [
      0.0,
      0.0,
      0.0,
      0.0,
      0.0,
      0.0,
      0.0,
      0.0,
      0.0,
      0.0,
      0.0,
      0.0,
      0.0,
      0.0,
      0.0,
      0.0,
      0.0,
      0.0,
      0.0,
      0.0,
      0.0,
      0.0,
      0.0,
      0.0,
      0.0,
      0.0,
      0.0,
      0.0,
      0.0,
      0.0,
      0.0,
      0.0
    ],
    "dense_42/kernel:0": [
      [
        -0.26576635241508484,
        0.00366249680519104,
        -0.2173536866903305,
        -0.23547017574310303
      ],
      [
        -0.037123680114746094,
        0.3193732500076294,
        0.31925565004348755,
        0.3258684277534485
      ],
      [
        0.1799272894859314,
        0.2575952410697937,
        -0.16187487542629242,
        0.18056446313858032
      ],
      [
        -0.28808268904685974,
        0.2137547731399536,
        -0.20631630718708038,
        0.012198090553283691
      ],
      [
        -0.27271872758865356,
        0.2655891180038452,
        0.19046878814697266,
        -0.06084698438644409
      ],
      [
        0.2531502842903137,
        -0.11306792497634888,
        0.003723323345184326,
        0.09026148915290833
      ],
      [
        0.07547852396965027,
        -0.21967150270938873,
        -0.10991674661636353,
        0.10465067625045776
      ],
      [
        -0.37901249527931213,
        0.35753029584884644,
        -0.3084522485733032,
        0.1827753186225891
      ],
      [
        -0.2537803649902344,
        0.060679852962493896,
        0.10140275955200195,
        0.0630578100681305
      ],
      [
        0.3231622576713562,
        0.3090742230415344,
        0.029909372329711914,
        0.31758373975753784
      ],
      [
        0.18563491106033325,
        -0.39425012469291687,
        0.11613678932189941,
        0.30737942457199097
      ],
      [
        0.12950366735458374,
        0.0048600733280181885,
        -0.3297959566116333,
        -0.11460551619529724
      ],
      [
        0.32951730489730835,
        -0.39646077156066895,
        -0.12538856267929077,
        0.07331934571266174
      ],
      [
        0.1648482084274292,
        0.00591614842414856,
        0.014723420143127441,
        -0.05725964903831482
      ],
      [
        0.049177318811416626,
        0.16202563047409058,
        0.2533024549484253,
        -0.15948347747325897
      ],
      [
        0.39626240730285645,
        0.21913528442382812,
        -0.30641603469848633,
        0.3145630955696106
      ],
      [
        0.1510552167892456,
        0.3314664959907532,
        0.18147939443588257,
        -0.12299424409866333
      ],
      [
        -0.26177310943603516,
        -0.008734077215194702,
        -0.36340829730033875,
        -0.2251671701669693
      ],
      [
        0.3068222999572754,
        0.12012499570846558,
        -0.16132445633411407,
        -0.09495902061462402
      ],
      [
        0.29490047693252563,
        -0.2792489528656006,
        -0.1553173065185547,
        -0.4038408398628235
      ],
      [
        0.1892140507698059,
        -0.24187727272510529,
        -0.30507710576057434,
        0.0068877339363098145
      ],
      [
        -0.13254785537719727,
        -0.1349589228630066,
        0.031594038009643555,
        0.11714369058609009
      ],
      [
        0.14804822206497192,
        0.06680282950401306,
        0.3363059163093567,
        -0.23280653357505798
      ],
      [
        -0.06381216645240784,
        0.2685074806213379,
        -0.38472530245780945,
        0.2676905393600464
      ],
      [
        -0.3356839716434479,
        -0.32641279697418213,
        -0.26709261536598206,
        -0.05037754774093628
      ],
      [
        -0.14590391516685486,
        -0.3893430233001709,
        -0.37666040658950806,
        0.25727564096450806
      ],
      [
        0.01608288288116455,
        0.37041085958480835,
        0.11366915702819824,
        -0.07212740182876587
      ],
      [
        -0.3469086289405823,
        -0.31936827301979065,
        -0.002227693796157837,
        0.2049151062965393
      ],
      [
        0.12744587659835815,
        -0.39940786361694336,
        -0.35907888412475586,
        -0.27438849210739136
      ],
      [
        0.12565672397613525,
        -0.04240560531616211,
        -0.14120998978614807,
        0.13059884309768677
      ],
      [
        0.3463789224624634,
        0.32089757919311523,
        0.15075868368148804,
        0.052419424057006836
      ],
      [
        -0.07604050636291504,
        -0.03611120581626892,
        0.20087701082229614,
        -0.15944211184978485
      ]
    ],
    "dense_42/bias:0": [
      0.0,
      0.0,
      0.0,
      0.0
    ]
  },
  "crc32": "3880469761"
}